2651 100
the -0.040489476 0.7488285 1.4644794 0.021232922 0.07640845 0.5585012 -0.035799023 0.9376276 -0.44478086 0.3268038 0.037046164 0.4668729 0.51925486 -0.23020844 0.5977887 0.33909592 0.75831246 -1.0582179 0.31941357 -0.24621882 0.14023268 -0.44950497 -0.012185911 0.73707896 -0.22649316 -0.7675663 -0.66508025 -0.3583994 -0.294601 -0.17700654 -0.36858645 -0.83833903 -0.79120743 -1.2983466 0.96822923 0.830152 -0.35325795 0.64195883 0.13076885 0.2663295 0.0020191313 -0.9368714 0.36052504 -1.4687309 0.6018909 0.42485565 -0.384491 -0.72224516 -0.045031946 0.19349594 0.07979612 0.4554187 0.3039131 0.44070604 0.08805277 -0.17741463 -0.8412916 -0.3158871 0.281421 -0.9249987 -1.100551 0.0035966202 -0.024487244 -0.5642818 0.60278755 -0.20647055 -1.0444233 0.26379165 0.4620159 -1.0403266 -0.06446745 -0.025794012 0.7772309 -0.82008255 -0.14189804 -0.47768807 0.40628964 -0.41421044 -0.9771336 0.20333833 1.0269467 0.00022928395 -0.16374406 -0.124982126 0.084107116 -0.40668097 -0.39039275 -0.62337655 0.55377126 1.0460209 0.074289486 -0.07601914 0.65223515 -0.7986793 -0.18824467 -0.5656182 0.013224091 -1.0081787 0.7582801 -0.269719
be -0.37575725 0.20556878 0.3622878 0.04956923 0.5087451 -0.250223 -0.18700661 0.12569219 -1.0055107 -0.27775583 -0.14790313 0.22299176 -0.6494807 -0.15750127 -0.42854246 0.37385345 -0.011830544 -0.33127195 -0.79196835 -0.69763356 -0.038249053 0.34240404 0.06832482 -0.07517253 -0.29384434 -0.15338728 -0.61634475 0.4266938 0.24399272 -0.679151 -1.258693 0.14123018 -0.16990252 -0.7214301 0.90313625 0.62130183 0.27985823 0.20184933 0.4369351 -0.01166006 0.048479162 -1.2648981 1.1808527 -0.21630077 -0.12667792 0.3351466 0.00048090518 0.10046678 -0.3805464 -0.71075076 -0.81089854 0.17556831 0.14039382 0.11038557 0.4736974 -0.37422174 -0.40069172 -0.2059432 0.20302105 -0.04561819 0.2665278 0.015716908 0.05225791 -0.32349578 -0.34337625 0.77985615 0.7748878 -0.08328991 0.64811337 0.08564179 0.23483403 0.880103 -0.29687965 0.061816104 -0.01930733 -0.412763 0.74032587 -0.43219241 -0.10546517 -0.50993174 0.27886403 0.44096407 -0.8987909 -0.07252232 0.48011562 -0.35778815 -0.43249393 -0.6202821 -0.68748975 -0.69332397 -0.40442285 0.4095084 -0.35834184 -0.056881946 -0.23960234 -0.39502463 -0.6558165 -0.16900626 0.86400145 0.36424017
a -0.18699372 -0.21479982 -0.34814578 0.038100693 -0.62382394 0.5480093 0.20910221 -0.3968055 0.43948582 -0.09840989 -0.57369876 0.24292581 -0.6758829 -0.45046896 -0.0031329496 0.46964005 0.5785293 0.1547839 0.6795483 -0.9683899 -0.23256454 0.65761167 0.2914111 -0.037065618 0.25241372 -0.17322153 -0.3620215 0.4847836 -0.094169624 -0.08485811 -0.30080107 0.31778955 0.25886565 -0.7903666 0.33603474 0.10013443 0.109739296 -0.119544744 -0.36602145 0.44593292 0.5773445 0.383661 0.030037697 0.39451906 0.24837922 1.0781095 -0.81074554 -0.30656213 -0.450517 0.0436873 -0.28103426 -0.3251154 0.28306246 -0.42254785 -0.35028195 -0.1580291 -0.5722086 0.7290243 -0.27079952 -0.88675827 0.30654836 0.07845757 -0.07164522 -0.18872291 0.06954036 0.1894518 -0.025269873 0.5377675 0.35687992 0.0315921 0.15630539 -0.17221582 0.30727166 -0.23697436 0.500498 -0.339285 0.6361317 -0.21237767 0.16744654 -0.024259511 0.19225737 0.6456688 -1.1706867 -0.85209364 1.2884088 0.20627145 0.6947762 -0.1533234 0.15098438 0.035490066 0.35048115 0.62549865 -0.44574288 -0.55315423 -0.39099813 0.69993293 -0.53777146 -0.20777698 0.005594369 -0.99032605
and 0.19976388 -0.38646743 0.3771638 -0.4512687 0.08046336 0.53121024 0.11882779 -0.2383484 0.039072406 -0.004197843 -0.28874156 -0.24919528 0.010034538 0.6697704 0.8045189 0.30741227 0.5702743 -0.0107993325 -0.4707983 -1.2074652 -0.23389745 0.11119059 0.49872974 0.10650145 0.30700684 0.52456003 -0.6049498 0.66984224 0.013171656 0.24607593 -0.8112951 -0.4249763 -0.643787 -0.8698839 0.679408 0.30215323 0.2555115 -0.08939561 -0.42282468 0.56475544 -0.3415044 -0.5103583 0.30180734 -0.40465438 0.26661247 0.13481286 0.1661149 0.0626414 -0.29181802 0.5315364 -0.37875074 -0.36468887 -0.05250824 -0.3893065 0.3415672 0.007585635 -0.1188879 0.40803474 0.7487422 -0.4491831 -0.44437978 0.30538657 0.21515001 -0.05719222 0.47438073 -0.69797784 -0.48870137 -0.15368845 -0.23951393 -0.37286007 -0.1751312 -0.33815974 0.21631315 0.52637863 0.33206403 -0.9717213 0.0061443266 0.39951283 0.5729376 -0.41654706 0.17439666 0.24720046 -0.495429 -0.28315437 0.36051032 0.6234318 0.14776024 0.02156379 0.23600431 0.036114864 0.08673547 0.10291364 -0.45905903 -0.5840045 0.08627746 -0.11633189 -0.1399738 0.045693267 0.39803168 0.3326882
of 0.051384427 0.9506953 -0.08564505 -0.16500531 -0.0023408253 1.2874253 0.42344195 0.37573284 0.13701604 0.6415193 0.36379388 0.5318585 0.012199809 0.34480482 0.94037145 0.1052652 0.70846736 -0.78687054 -0.20271498 -0.1561658 0.10080815 0.67626625 1.2099285 -0.603832 0.9329037 -0.89708734 -0.47604826 -0.22941694 -1.0511423 0.0015368382 -0.82693386 -0.6472858 -0.24201895 -0.47768587 0.048485167 -0.43942162 -0.99136615 -0.06917578 -1.3615217 0.85871285 -0.0040948456 -0.25030372 -1.200248 -0.91135585 0.95518774 0.8680865 -1.6582285 -0.8922073 0.7284846 0.3642848 1.4512771 -0.45488492 -1.0436441 0.1110806 -1.0230919 0.47416362 1.4105489 0.46483853 0.16052735 -0.8280485 -0.056177836 0.5125696 -0.84297067 -0.313613 -0.39273915 0.78780323 -0.22476229 -0.36491683 0.35297272 -0.41444877 0.2075584 -0.11762632 0.36595678 0.12680912 0.27808154 -0.9190943 0.020253558 -0.62212723 -0.039937273 0.5698189 -0.24379463 -0.6974647 0.24276538 -0.017250434 -0.6529659 0.3941413 -0.07897384 -1.1586845 -0.18730277 0.3690678 -0.79627204 0.094818376 0.6660163 -0.36706114 0.99096435 -0.32087097 -1.2446594 -0.7257257 0.9646898 0.5369113
it -0.18645935 -0.03982357 -0.2503953 0.2988395 0.63186 -0.9376861 0.6986058 0.122827485 1.0796778 -0.27305442 -0.48306623 -0.4359827 -0.97608596 -0.7254896 0.16255021 -0.071109824 -0.4084883 0.4290527 0.010202994 -0.41371548 0.91736394 -0.6536686 -1.5667323 -0.70200735 -0.6315818 0.068844154 0.07539539 0.19116919 -1.0829973 -0.15624157 -0.4932533 -0.2525671 0.5102697 0.11713742 1.2705736 0.55121416 0.59855896 -0.9861753 -0.8533515 -0.6096319 0.33717915 0.56922233 0.14858091 0.06551245 -0.027174668 -0.2632755 0.00066117145 -0.14550583 -1.7999569 0.62210554 -0.18186107 0.12832133 -0.27395988 -1.3226976 0.37417364 -0.7892446 -0.4824552 -0.18568164 1.7478656 -0.9530095 1.269011 -0.6680276 -0.3151366 0.00902173 0.3483597 0.5055341 0.41122824 -0.19728786 0.064225204 -0.16594495 0.6730248 1.1012155 0.42603967 0.3442135 0.7124221 0.85145336 0.9853473 0.74466264 -0.062477965 -0.7757549 -0.9148355 0.1937596 -0.2528147 0.21657927 1.4118468 0.2680581 0.3794888 -0.107367605 0.5660437 0.42820048 -0.49745953 0.011839949 -0.6692452 -0.18643881 -0.35787404 -0.26792094 -0.606719 -0.056709886 -0.55722994 -0.8598149
i -0.23110393 -0.28573042 0.5558061 0.42274955 1.5667623 -1.822717 -0.098447435 0.6558633 0.43729812 -0.14557573 -0.15402015 1.6166973 -1.5742768 -1.1066972 -1.6054654 -0.37028566 -0.12745239 0.48622602 0.0023864913 0.6733194 0.6778173 -1.4485458 -0.5998495 -0.49932453 -1.4714524 -0.31515333 -0.034502916 -1.4153525 -0.35301584 -0.51455605 0.8269435 0.60217685 -0.124549285 1.1912273 0.3011067 1.1056406 -0.4044214 -1.2193974 -1.2927254 -0.33986598 -0.34665218 -0.010796177 0.25427666 -0.6230322 -0.37724906 -1.0364603 -0.01836534 -0.71407294 -1.2701721 0.4431285 0.63119805 -0.352647 -0.56065226 -2.2630663 -0.32695165 -1.1852165 0.73964465 -1.644888 2.307426 -1.4366266 0.25794423 -1.0165688 -1.6237478 0.0826814 -0.32143298 1.7865852 -0.2910397 -0.49020004 -0.14958917 0.31905538 0.38909823 0.44501323 0.115093336 0.9312916 -0.87365234 1.7925317 1.3302 0.27306995 -0.13486548 -1.1646559 -0.10433518 1.0661342 0.42391905 -0.5358383 1.4462211 -0.6710962 0.24066605 -1.9166963 2.5013142 0.4262168 0.16484469 -0.41024432 0.3769757 -0.561353 -0.47837427 0.10599111 -2.2187877 -0.6779919 -0.036538985 -0.38656557
this -0.30376315 0.380295 0.07048471 0.5937474 -0.2990069 -0.03751715 0.27816874 -0.24988683 0.42238066 0.34301955 -0.8046618 0.9751703 -1.0395046 -1.5018239 -1.2082523 -0.16361733 0.39614305 -0.43278468 0.47600177 0.05853882 0.38464323 -0.4802912 0.20237687 -0.28269163 -0.90256083 -0.9393938 -0.66675264 -0.29917863 -0.5837997 0.3650918 0.40576625 -0.073857285 0.32369035 -0.052939955 -0.40624207 0.954155 -0.92246485 -0.5435072 -1.3655643 0.41603845 0.17577478 0.09254541 -0.23260045 0.4825617 0.50373185 0.1653681 -0.9106072 -1.3838023 -0.61211246 0.8716872 0.27628514 -0.5447483 0.017251657 -1.7724845 -0.29792202 0.60725427 0.8048286 0.10603923 0.78759694 -0.76912004 0.34542647 -0.706689 -1.4287738 -0.47862932 0.45872593 0.5033198 -0.19431792 -0.79586476 0.58182395 0.6327208 0.5395904 0.016650576 0.6558356 -0.00906238 0.62910044 1.3364689 0.9432369 -1.3577006 -0.38381252 -0.30471367 0.40958288 0.40585423 -0.6858869 -0.5970614 1.9321845 -0.32772818 0.37797034 -1.1190437 0.94899774 0.8155786 -0.51371616 0.5109766 0.745166 -1.5550542 0.19996843 0.42323717 -0.94024605 -1.0572824 0.4191426 -0.5567734
to 0.20394473 0.022536874 -0.28189144 0.14249575 0.3122314 0.08685369 0.532837 -0.095880516 0.507337 0.21594067 0.08652204 -0.13712558 -0.6670202 -0.52925956 0.08806636 -0.009918302 -0.37386745 -0.22864659 0.2708478 -0.8564062 0.21368653 -0.80730236 -0.45755488 -0.5590836 -0.5814229 0.6452172 -0.6700491 0.21332827 -0.79246354 0.8595215 0.86111885 0.18126495 0.9780044 0.403059 -0.59437406 0.14070433 0.32873183 -0.45298427 0.14885898 -0.1743174 0.55945486 0.6632745 -0.1947114 -0.51163477 0.5770915 -0.49347383 -0.11516826 -0.31725517 -1.2438828 0.123526454 -0.045708843 -0.5795542 -0.65525585 -1.0270501 -0.6725204 -0.87096226 0.025940439 -0.35006455 1.019788 -0.3298743 0.23237592 -0.09177388 0.021171084 -0.30727267 -0.9109249 -0.008903071 -0.03633119 -0.53740466 -0.28354442 0.4763912 0.18173283 0.15433156 0.15812375 0.23581204 -0.48774815 0.49321634 0.24334301 0.6333506 0.58774054 -0.800468 0.21143864 0.066506885 0.3051848 -0.0855879 0.611439 0.42544663 -0.05430943 0.5900451 0.56094486 0.41770044 -0.04674373 -0.3013543 -0.46547627 -0.1547226 -0.21040212 0.5201398 -0.2253533 0.030737888 0.32195628 0.16535437
movie 0.4628436 -1.2452219 0.1855103 0.26748446 -0.93181664 0.2584628 0.6044608 0.020072717 0.6711698 0.22714467 -0.53407466 0.3132994 -0.45373446 -0.54746866 -0.52906066 -0.7340539 -0.7834671 -0.6967948 -0.8012034 0.4319626 -0.24218373 0.2537378 -0.6391191 -0.69557136 -0.78852594 0.43900633 0.2054308 0.10484035 -0.8437629 0.06643088 -1.2788322 0.5042063 0.34543255 1.0874088 0.69883734 1.3124248 -0.79854006 -1.1652329 -0.86630356 -0.43031913 0.84463197 0.6767339 0.32865897 -0.15252668 -0.07873079 0.56145275 -0.26370275 -0.39103583 0.3097682 0.32127425 0.27048302 0.016262235 -0.6393252 -0.5898606 0.3688758 -0.7823179 0.7207529 -0.48320597 1.4360696 -0.55013657 0.057691228 3.1096348e-05 -1.9473534 0.6808188 0.2632607 1.6177169 -0.39350483 -0.1424792 0.5343381 -0.24726987 0.6480989 0.6728784 -0.08959091 0.79230666 0.6890221 1.3532692 1.2592611 -0.70634186 0.43726102 -0.2288373 0.035910998 0.25367287 -0.08805978 -0.46651593 1.8643898 -0.24680398 0.1217022 -1.8992949 0.082174666 0.07128108 -0.61243635 -0.9003298 -0.26467565 -0.43435583 1.2084349 -0.25852236 -0.75953877 -0.44853577 -0.4215923 -1.1538744
in -0.076107435 0.364285 -0.37175545 0.25675324 -0.20377694 0.04856058 0.26323587 0.81071645 0.05704548 0.18415879 -0.6387245 0.5158343 -0.0012359605 0.16243868 0.08040762 0.29295015 0.31192735 0.009816977 -0.5404587 -0.47446248 -1.1574492 0.20234121 1.4375855 0.031239156 0.52685386 -0.19205746 0.36175966 0.91847545 0.71288764 0.4043846 -0.28562495 0.18015084 -0.06774506 0.07295393 -0.34424147 0.54714966 0.16092461 -0.20233576 -0.4775144 0.52871555 -0.13233732 -0.06681702 -0.30550385 -1.0371134 -0.4347388 0.5865711 -1.1546737 -0.47204822 0.7200298 -0.85636324 -0.68778867 -0.99499667 -0.65969485 -0.20465033 0.07701584 -0.5277016 1.1092665 0.065429054 0.41943654 0.22436501 -0.50858206 -0.056620136 -0.717368 -0.32866448 -1.0492387 1.1138657 -0.78407764 0.015173266 0.26157966 -0.16351965 0.8598009 -0.3569852 -0.32983476 -0.35628578 -0.47208664 -0.023118753 0.67780983 -0.43937963 0.79889697 -0.25720686 1.1891195 0.3237536 0.12108398 -0.0071350676 -0.02452718 -0.8093275 -0.12458642 -1.4351645 0.33170435 0.36807266 0.83976626 0.021762677 0.34627816 0.8757128 -0.061623007 0.7428122 -1.0844998 -0.037010886 0.46309924 0.45904735
film 1.7906101 -0.21502183 0.39221278 0.12528433 -0.6473791 0.31078264 0.24391265 -0.03823045 0.46591628 0.25920334 0.017800279 1.2759854 -0.30770245 -0.07125179 -1.2793401 -0.48265678 -0.9849794 -0.70217556 -0.40553755 -0.32131663 -0.46342418 0.3367903 0.18553025 -0.8366372 -0.37727678 -0.21638596 0.58473635 -0.41729364 -0.51517886 0.48948398 0.19910415 -0.18430866 0.44272563 0.94925976 0.24617603 0.27989492 -0.018051406 -0.11736949 -0.84052455 -0.35793436 0.9954383 -0.74495214 -0.33059263 -0.25795412 0.5857307 0.5874659 -0.58708954 -0.6456989 0.21651493 0.13257803 0.47168708 -0.4547149 -0.5517825 -0.6109753 -0.72822237 -1.2039633 -1.2899209 -0.8868869 0.81689274 -0.6438458 -0.0049364096 0.4490607 -1.1465219 0.47770903 -0.22793785 0.62410283 -0.11087235 0.5602327 0.50497085 0.6977298 -0.5306815 0.6388041 0.12580803 0.64458215 0.014388356 0.94787186 0.8418614 -1.4821886 0.387596 -1.2589968 -0.5112904 0.7768225 0.5886012 -0.24148004 1.37632 -0.25487423 0.48154607 -1.6346939 -0.0003271425 -0.61213887 -0.16384076 0.23673186 -0.033250947 0.018740475 0.9052304 0.15690699 -0.88522667 -0.14050442 -0.13934462 -1.1269796
s -0.99163437 0.28697303 -1.2446654 -0.07573119 0.15802181 -0.1796406 0.11649568 -0.33287767 -0.24441658 -0.08912946 -0.17818375 0.67892075 -0.14634858 0.36281064 1.5544039 0.67830795 -0.35970905 0.2843598 0.6352274 -0.7792799 0.750675 0.21488518 0.6001132 -1.0897765 0.5547812 0.27673945 0.28635648 1.0290508 -1.1864554 -0.85717607 -1.2053128 -0.33488962 -0.008594428 -0.5764846 1.4479433 -1.4124467 1.026951 0.7499991 -0.10472885 0.021743571 0.33680302 0.44019693 -0.0126930345 -0.2693331 0.99272895 -0.04623731 0.4915107 0.67590404 -1.311585 -0.056665607 -0.05195363 0.61926335 -0.7303092 0.58742595 -0.36861768 -1.2248716 -1.1283785 0.24636279 0.38175964 -0.7454487 0.60685736 0.07306437 0.6156704 0.14185892 0.05093305 0.8553974 1.7664999 -0.09792885 -0.02709685 -0.8659305 -0.10829477 0.23783246 0.3307338 0.5480398 0.130913 -1.4976566 0.61272615 0.72901607 0.8895246 -0.27830446 -0.215309 0.34762353 -1.312891 0.4247228 -0.5168523 1.5260127 -0.12661202 0.3616868 -0.43638253 -0.21153495 -0.66639084 0.23319025 -0.71390235 0.50838155 -0.7831077 0.213544 -0.13613772 -0.95916533 0.63994575 0.1745048
that -0.11130478 0.13019511 -0.108157836 0.15751371 0.35662344 -0.9588249 0.39556935 0.2417925 0.12130032 0.5685599 -0.70309293 0.10305811 -1.0877904 0.11373412 -0.12593171 0.10759386 -0.33663055 0.18453273 -0.34876704 -0.0393405 0.90652597 -1.2315185 -0.95389825 -0.19012372 -0.74341136 0.46118733 0.04232222 -0.3783692 -0.7986695 0.18416779 -0.355337 0.13137972 -0.1767834 -0.01935195 0.022203162 0.035739798 0.39061633 -0.34673378 -0.45734334 -0.035787743 -0.037229463 0.50371355 0.088664435 -0.5689825 0.098965384 -0.5922512 -0.3357153 -0.70495045 -0.97051835 -0.27268347 -0.18071806 -0.043461025 -0.6019242 -1.346841 -0.09889431 0.07681019 -0.1436772 -0.493885 0.6699229 -0.748445 0.6046949 -0.9609705 0.06809935 -0.96875495 -0.26497093 0.34721902 0.03651763 -0.45376256 -0.40311816 0.27380437 0.46785536 0.18578267 0.4623282 -0.4826514 0.12192645 0.79129183 0.1963035 0.507929 0.020170692 -0.9821066 0.07163342 0.4854908 0.16036448 0.5600908 0.16622475 -0.2936747 -0.28291872 0.16469477 0.64953345 0.3493357 -0.055616982 -0.20210634 -0.098559886 -0.320454 -0.7936703 -0.31221122 -0.6668716 0.24319458 -0.18107437 -0.47483838
have 0.10625094 -0.50728667 -0.292862 0.049254697 -0.23052096 1.091079 -0.9544332 -0.8542959 -0.78500736 0.44634104 -0.44210106 0.77818483 -1.0033158 -0.6164794 -0.2760333 -0.5623157 -0.62572646 -0.15884702 -0.6965261 -0.28815368 -0.088875346 0.10599921 -0.7370709 -0.98641914 -0.79674554 0.042344093 -0.6814688 -0.3195669 -0.24611683 -0.060931124 -0.20951557 -0.0172408 0.6744145 -0.514748 -0.06099095 0.049194008 0.108350545 -0.13174878 0.35716936 -0.15674232 0.78618246 0.20963243 0.74071014 -0.10334189 -0.3374851 0.46346718 0.23686202 0.061870836 -0.51565194 -0.6885096 0.13782637 -0.288818 -1.2494574 -0.48189545 -0.3773914 -0.6961565 0.31925613 -0.1694142 1.0751044 -1.239458 -0.7184881 -0.3122368 -0.783181 -0.24324732 -1.81715 1.2449454 0.27832016 1.0273912 0.75995797 -0.41104293 -1.2176034 0.6033402 -0.81068027 0.046621162 -0.74297726 0.5778684 0.20881519 0.5167819 1.081129 -0.12720428 0.58927184 0.6303916 -0.90315396 -0.9956783 0.32693654 0.20099774 -0.1812245 0.2343672 0.22015782 -0.053933997 0.9012178 0.2473947 -0.2556737 -0.3245955 -1.191268 0.040513787 -0.38323623 -0.27592042 0.14916538 -0.28720847
for -0.110165395 0.023563676 0.5943828 -0.15728846 0.64046586 0.092694305 0.3657753 0.6760844 -0.5027115 0.35701868 0.17570488 0.59558904 -1.2902455 0.7823036 0.64868003 0.5634357 -1.2263746 -0.64565206 -0.015541794 0.29455778 0.82475877 0.6490124 0.4982405 0.09614477 -0.37716073 0.0839615 0.13259014 -0.3799633 0.04155281 0.70183593 -0.53213125 1.3102763 1.6200936 1.0918456 -1.201432 -0.60135967 -0.104780786 -1.0779904 0.48711923 -0.31141663 1.0572623 1.57422 -0.55630463 -0.12959665 0.14210536 0.24125315 -0.6031777 0.5127485 0.19337468 -0.0042954516 0.40358058 -0.5863748 -0.03144827 -0.6992833 -0.97321236 -0.7269019 0.33970338 -0.33883595 0.35633335 0.8160558 -0.07225675 -0.91036946 0.053533096 -0.30068126 -0.5753629 0.87191665 0.63253534 -0.030522319 -0.8936915 -0.17405686 0.5571459 0.16643597 -0.392614 -0.9156865 -0.41984808 1.078537 0.7467564 0.41451222 1.1951418 0.4287458 0.031366996 1.0261859 0.7828426 -0.4101982 0.8595871 -0.07550922 -0.16899249 0.004913792 0.0732804 0.1295746 0.3569481 -0.17843021 -1.0275149 -0.08406211 0.25847077 0.10096557 0.09966446 0.70180637 0.5278826 -0.5461482
t 1.7363057 -0.21675834 0.6221255 0.7122364 0.42760283 -1.8918304 -1.4734323 0.96645045 -2.1151779 2.1896482 0.7501749 1.4117279 -2.66523 1.8869512 0.35438693 0.92450476 -1.67294 -0.77533585 0.77422297 1.0905713 2.203508 -0.9376953 -1.1850411 0.034140866 -2.1752148 0.7924599 0.21042635 -2.0378108 -2.1635196 -0.04373035 -1.9209337 0.8875351 -0.49810648 3.4902997 -0.1772605 -0.40235808 -1.9574615 -1.3917263 1.415069 -0.5419038 -0.29973653 1.3409362 2.4958813 -0.57393837 1.1285315 -2.789441 0.41325924 -0.35970196 -1.3372505 0.4810004 0.8661338 0.21719536 1.9222465 -2.8101 -1.5232894 -0.5777978 -0.3144293 -1.202723 1.1945188 -0.33723503 -1.402406 -2.6103044 1.0797176 -0.88638926 -0.5356358 1.5437858 -0.6973553 -0.1241721 0.098599225 0.29428202 1.2811656 -0.86193144 0.54936266 -1.5531025 -0.42139873 1.6972768 0.2629819 1.2478802 1.4912517 -1.6608453 0.8632641 1.9820133 0.31023115 -0.26279926 0.5728045 -1.384757 -2.3517694 -1.0526028 1.4897792 1.7310321 -1.003353 0.21726432 0.028820843 -0.44461238 -0.107537836 -1.4724884 -2.2068496 1.515877 -0.27549398 1.7647277
but -0.499566 0.18434432 -0.04883371 0.5909456 0.14787981 -0.43810368 -0.10365434 0.492387 -0.42407715 0.26069614 -0.26056233 0.32673654 -1.2338631 0.13961291 -0.32882807 -0.23621386 -0.67989 -0.43310115 -0.2936567 -0.35455927 0.5689635 -0.25987387 -0.5062015 -0.029080918 -0.77807075 0.077992894 -0.13830458 -0.047298264 -0.43194684 -0.1564169 -1.357758 0.626127 0.53286695 1.0293744 0.14401938 0.34240776 -0.12907071 -0.84726775 0.10861962 0.6865449 0.7464009 0.3949749 0.98090535 -0.6561969 -0.25276533 -0.8106733 0.20721062 -0.3583565 -0.43528116 0.21777026 0.05651111 -0.059300143 0.07698416 -0.64118373 -0.021855257 -0.52875924 0.4203355 0.3258968 0.5462943 0.37546653 -0.36237985 -1.0815244 -0.2840938 -0.44295183 0.122956455 0.2796158 0.29446375 -0.2116429 0.02544453 -0.50622356 0.669787 0.32939422 0.068968296 -0.41748026 0.25559416 0.9585031 0.27226982 0.39110717 0.44681278 -1.0653759 0.54531157 1.0848957 -0.118437946 0.052439127 1.1646011 -0.18510894 -1.0894476 -0.63148075 -0.19440868 1.2165169 -0.31263098 0.15995327 0.30154777 -0.18479912 -0.27941093 -0.44732603 -0.78551286 0.37561932 -0.12289011 -0.1945825
bad 0.011724384 0.3572159 0.6026872 0.1730565 -0.4856817 -0.8829917 -0.29946792 0.66499376 -1.0096844 -0.07225556 0.088796854 0.18210898 -1.751833 -0.21994866 -0.5597215 -0.294457 0.0028934972 -1.2982395 -0.71957517 -0.32019678 1.1604284 0.25972 -1.1517962 -0.46535486 -0.8840485 -0.26273802 -1.3520217 0.031392165 -0.8772674 -0.33302215 -1.5943131 -0.08967736 0.31545523 0.4285898 1.3919009 0.6998413 -0.7527782 -0.54586023 0.1287542 -0.5382452 0.45505583 -0.23804623 1.7520853 0.027749704 0.13696462 -0.16356131 -0.51628613 -0.15350066 -1.1930418 -0.3804803 -1.0643675 0.8628782 0.2366293 -0.9240889 -0.0024378954 0.96987987 -0.2903524 -0.05904291 0.92740095 -0.7623482 0.9783671 -1.4265695 -0.4253707 -0.6363852 0.409792 0.9239187 1.1306492 -0.97832614 0.82935363 -0.29309362 0.9747681 1.124113 -0.06273788 -0.22975463 0.9359023 0.9764607 0.46017113 -0.07621264 -0.29201642 0.3441578 -0.15272519 0.46305555 -0.23830101 0.028589705 1.8874686 0.35672632 -0.09572823 0.29088524 -1.1341679 -0.15592954 -2.364043 0.047066554 -0.31711766 -1.6317661 -0.338827 -0.90453106 -0.2378147 -0.31562376 0.43636703 -0.8739199
with 0.30375755 -0.14532934 -0.39037055 -0.5920563 -0.17476757 0.84892005 0.64615524 0.3483538 -0.30584434 0.19265904 -0.34810594 -0.19682947 -0.3995997 0.81684875 0.39499432 0.28371784 -0.41854787 -0.046107963 -0.48832226 -0.9553641 -0.4199586 0.46543655 0.29365808 0.08646845 0.5029027 0.4614159 0.25546902 0.6677315 0.5907154 0.62590384 -1.0828209 0.76258177 -0.34663793 -0.16968623 0.20314763 -0.42887193 0.0069261584 0.73601645 -0.15617557 -0.034506213 -0.037449457 -0.14020997 -0.44962853 -0.9961118 0.16670461 -0.29902568 -0.22310673 0.4491082 0.07522317 -0.7101987 -0.42903727 -0.10304962 -0.33002597 -1.0017774 0.17764637 0.09666619 0.043153293 -0.330547 -0.07371069 0.581974 -0.96168905 0.18478227 0.6178118 -0.4555665 -0.5834682 -0.3571337 -0.4299232 -0.032114737 -0.6056733 0.22941625 -0.07089541 -0.71043134 -0.48070064 -0.5529004 0.18560866 -0.25581676 0.14286056 0.5756342 1.2941781 0.014382755 0.769547 0.91175056 -0.20428257 -0.49820074 -0.22349742 -0.19624496 0.012364094 0.17532709 0.626568 0.07188967 0.20179544 0.005888426 -1.1021911 -0.06623635 0.48606282 -0.13867305 0.15385613 0.732014 0.5843457 0.32651043
you -0.35896033 0.40886906 1.7057332 0.11989153 0.062487055 0.7094868 0.24486835 0.67015195 0.5647443 0.89131254 0.5265478 0.84262234 -2.4239724 -1.2110687 -0.42926067 -1.0129603 -1.573784 -1.5050699 0.71309 0.102234915 -0.010977474 -0.115523845 -1.7181519 -0.6893431 -1.3452815 -0.8562731 0.26264504 -0.41771436 0.4079025 0.060647972 0.31848267 1.1038027 1.1130508 1.675582 -1.0467374 -0.61877364 -1.7578768 -1.1817145 -1.4933429 -0.5281482 1.6378777 0.54864174 0.41093692 -0.903528 0.72945094 -2.1441784 0.32468054 0.44125777 -1.3625516 -0.41933274 0.87848485 0.09338556 0.18451375 -2.6498053 -0.67844933 -0.30232203 -0.48691106 -0.30453297 0.3585155 -1.6996545 0.51104134 -0.4487404 -0.6439163 -0.23285188 -1.1542723 0.6621294 1.1574421 0.8958975 -0.7927318 -0.18657146 0.17353588 -0.58378863 -1.4612594 -0.23052669 0.20956029 1.4122263 0.99610776 0.9096765 2.3114822 -1.029258 -0.58801657 1.2918712 -0.95390093 -0.5554533 2.0016043 -0.060731355 -1.2531264 0.9444959 1.6333216 1.6829121 0.81294703 -0.39245713 -0.75323707 -0.5626393 -0.012005119 1.0698559 0.043050528 1.48958 -0.52737576 -0.83552915
one 1.2963369 -0.503809 0.96215487 0.38454214 -0.544738 0.113145374 0.8204591 0.3942692 0.002546958 0.6718957 0.66866064 2.0701444 -0.4802081 -0.5355861 -0.95027316 -0.60133845 -0.39753112 -0.9629425 0.9695275 0.09258087 0.3130962 -0.40155223 -0.22829795 -1.2723867 -1.2260805 -0.49600926 0.41644928 -1.7389786 -2.065559 -0.800475 0.3167536 -1.2417601 -0.11578037 0.25279143 0.52227885 0.12047343 -1.2385997 -0.8865343 -0.746391 0.51984596 0.9433159 -0.58207977 1.1031832 0.171179 1.6087815 1.157273 -0.23805049 -0.49707094 0.37238738 0.53336126 1.1149642 -0.35628438 -1.012216 0.25841206 -1.2355771 -1.1022556 -0.5335915 -0.102619566 1.2988455 -1.7157553 -0.6812843 0.39305064 -1.9308884 0.6348888 -0.76700044 2.0001647 0.1220328 0.18409969 1.2314446 -0.85129684 -0.2715931 0.18662345 -0.37893233 1.6855347 -0.38865218 0.78084975 -0.14366356 -1.2920945 0.4488988 -0.3103321 0.44114566 0.013567304 -0.39702728 0.28557357 1.5600675 -0.7021889 0.08121884 -1.630116 0.42583752 0.71767485 -0.32568195 0.46549994 0.7079881 -1.407542 -0.26889563 -1.0304978 -1.8761271 -1.9023155 -0.06272558 -1.3092065
on 0.61128056 0.29492435 -0.6946349 0.44181305 -0.066605605 -0.3103951 0.9699548 0.69697976 0.12527741 0.24478273 1.0222538 0.537281 -0.800692 -0.76315975 1.0437115 1.7489041 0.8371873 1.2617364 -0.35757107 -1.3575841 0.4748911 0.31955498 0.9885381 -0.49070907 -0.80945885 -0.38525924 0.102845445 0.7467664 0.51502514 -0.8408975 0.8782798 -0.03565632 0.0004160061 0.49555373 0.5240926 1.3952957 0.42904124 -0.19084856 0.395987 -0.8794578 0.7300813 1.3716227 0.035856605 0.70738643 0.057857912 -0.05989518 -0.016882997 0.4040808 -0.07984316 0.1433874 -1.0814734 -1.2432272 -1.2135481 -0.80087364 -0.83438367 -1.1226764 -0.077313855 -0.45918155 1.451627 -0.5025074 -0.10267695 0.18722355 0.082902096 -0.74254304 -1.5185082 0.87940264 0.9538121 -0.44140476 1.2538568 0.31712306 0.09942858 -0.47692716 0.08171874 0.69928867 -1.741825 0.078246295 -0.24509579 1.054173 0.12524736 1.3945732 0.39989948 -0.6636778 0.5661236 -0.47060308 -0.10666115 -0.2295217 0.5405964 0.094672084 -0.35981128 -0.5523003 -0.011360004 -0.44608527 -0.3202328 0.28219575 -1.3153709 0.1163002 -1.3725442 -0.1622687 0.99384594 -0.19613738
not -0.9310208 -0.31590146 0.06358603 0.61377126 0.35871255 -0.33467254 -0.5357656 -1.4592733 -0.58925086 0.2709962 -0.25935903 0.5807149 -0.84896064 -1.0039765 -0.78315026 -0.86717534 -1.1054978 -0.26645714 0.02888289 -0.39760298 1.000827 0.7277305 -0.48127043 0.68978834 -0.9523296 -0.29326662 -0.9078554 0.22954415 -0.8862418 0.34064254 -1.2081462 -0.1555805 1.6146721 -0.03964649 -0.44447106 0.6321062 -0.63159424 -1.9210618 -0.6177432 0.27817416 0.59633774 0.6390748 1.2284224 -0.08553442 -0.22890377 -0.068616994 -0.34462252 -0.5347288 -1.082246 0.087920696 -0.15075268 -0.33508188 -0.28854287 -1.433465 0.19655976 0.013558447 0.51641774 0.07494055 1.6344643 -0.39414743 0.15064809 -1.8901106 -0.9739082 -0.26719344 -0.047066666 0.51379824 0.9475706 -0.2901727 0.70834565 -1.1196787 0.5283946 0.4837801 -0.04794023 -0.5557802 0.7897983 1.9321841 1.082949 -0.5180383 0.95513743 -1.1079488 -0.023533905 0.66953105 -0.8964576 -0.83122724 2.1865842 -0.40969795 -1.2479774 -0.4334725 0.27579978 1.1525924 0.17833784 0.46074772 0.41488117 -1.1321037 -0.64348644 -0.20455505 -0.8725139 -0.26719266 -0.6234509 -0.112167545
see 0.30553803 -0.41119516 0.02234637 -0.47133344 -0.67700744 -0.3219891 -0.24437287 0.24396566 0.056540124 1.8158784 -0.15689611 2.1054943 -1.4518961 -1.3895502 -0.35688967 -0.3963139 -0.1136053 0.08288925 -0.13631813 0.5347251 1.1284441 -0.9433278 -1.289384 -1.4033235 -2.005979 0.55944264 -0.088397846 -1.4678686 -0.53703046 0.5793042 0.11395166 0.34099045 0.5066698 0.9742812 -0.07535673 -0.23155665 -0.6697904 -1.1860763 0.016425999 -0.5355655 0.42728055 1.2196059 -0.013464412 0.18757276 -0.18190868 -0.626131 0.17105383 -0.36780646 -0.6017532 -0.91463286 0.9821409 -0.21938683 -1.310215 -1.3428149 -0.90731424 -1.6008973 0.121588945 -0.3625988 0.45152748 -1.489691 -0.8400203 -0.8333898 -0.871539 -0.5786144 -1.5213262 1.9528539 0.5089381 0.7110141 0.13510399 -0.2757162 -0.039292295 -0.30987486 -0.07240785 0.94042534 -1.48109 0.6855886 0.8054031 1.3723834 1.0124506 -0.16324933 1.0031091 0.69520634 -0.4620351 -0.8479082 0.44517058 0.8057175 -0.30397126 -0.13096309 1.6589631 0.55844474 0.22861744 0.12223003 -0.32749248 -0.067022935 -1.4384364 0.80732304 -1.1078463 -1.1782601 0.6090512 0.0943786
very -1.073984 -1.7507281 -0.92082673 -0.77336824 -0.29280806 -0.3898286 -0.31532797 0.040105797 0.27173674 -1.0741925 -1.1742282 -1.1834697 -0.89608157 -0.08261604 0.9148399 -0.35100955 0.068394996 0.20561047 -0.04677574 -0.84032434 -0.44408578 2.6244037 -0.8662664 1.795859 0.8005946 -0.52645254 -0.711774 0.8326977 -0.8016881 0.056561705 -3.148155 0.108598165 1.6782961 -1.985209 1.7570578 0.10222405 0.48888254 -1.3975171 -0.6164292 0.31994107 -0.83906573 0.25478655 1.5782871 -0.06705382 -0.00974462 0.67050874 -1.2484552 1.0430651 0.2843465 0.32206127 -0.48182455 -0.32692114 -0.53362036 -0.8829006 1.2996334 1.2472972 1.0220076 0.87247777 0.72412515 0.20748079 0.6379257 -1.1653267 1.0776228 -0.7264224 0.8613208 -0.23714624 -0.78630745 -0.21465659 0.04364084 -0.9914184 0.85550636 0.23417163 -0.35014555 -0.81718177 1.5322834 0.13829646 1.0115056 0.16283649 0.4647474 0.43478292 0.43828765 0.66512924 -1.758193 -0.85535866 2.0040522 0.93579066 0.8684743 -0.23287322 -0.6791406 0.3605303 0.7768965 0.6902195 -1.2293494 -0.03180187 -0.62132984 -0.83065784 -0.4723205 -0.12871842 -0.051990982 0.26517615
all -1.1330183 -0.80495256 2.054788 0.110762335 0.04103601 -0.020256829 0.5964585 2.1098936 0.029284576 -0.6581763 -1.3386921 -0.08130337 -0.692497 0.7180912 0.32008767 -0.23183233 -1.2617782 -1.153925 0.6117825 0.15792018 -0.29193398 -0.3353014 -0.6419749 0.33198938 -0.22806033 -1.3540661 0.42248982 -0.62537694 0.05288406 0.9710901 -1.0787058 -0.6715803 0.2157379 -0.6753737 0.9576592 -0.06357813 0.66188073 0.42357227 0.4571492 -1.4748622 -0.23679554 -0.7965812 0.09114234 -0.982978 0.5178558 0.16388234 0.15445983 -0.3183097 0.8120773 1.14605 1.0251557 -0.25081283 0.08827917 -0.06461024 0.40227795 -1.1638967 -0.43313995 0.015547688 -0.4910832 0.03775793 -0.2629998 0.5240004 0.5268713 -0.94456434 0.61120695 0.2041007 -2.0413826 -0.3828346 -1.0400918 0.35888398 0.592823 -0.022726877 -0.17767538 -0.4644982 1.0691781 0.11081742 1.9166552 0.1926875 -0.101915635 -0.626297 -0.13792776 1.4053613 -0.3110653 0.12847772 1.4911424 0.1884753 -0.040482868 -1.292043 0.2821185 0.871277 0.6435037 0.11353669 0.28725776 0.55674607 1.6146127 -0.15761574 0.41034025 -0.9942654 2.2560437 -0.43207622
make 0.17293736 -0.14785655 -0.29914016 -0.24197601 -1.7613165 0.20138179 -0.45013994 -0.2992893 -0.6318483 0.5512792 -0.29853535 1.0928262 -1.5716323 -0.5391808 -0.5685983 -0.12428872 -0.46017244 -1.5070925 -0.7639304 0.5960302 0.64176226 1.6766129 -0.04891089 0.030056914 0.1499687 -0.37715185 -0.9175901 -0.3747767 -0.31245378 1.5961453 -0.760302 0.82397753 0.80873907 0.5933574 0.035880405 0.3508492 -1.5843416 -0.9415988 0.21810183 -0.4769012 0.9844103 0.31446862 1.270883 -1.0204154 0.73813397 -0.04488308 -1.542099 0.14607961 0.29714242 -0.38103217 0.33358932 0.0008625622 0.33140242 0.0071172356 -1.1622063 0.23221482 -0.47952533 0.43769684 -1.2787555 -0.72979707 -0.6892297 -1.0616558 -0.3954534 -0.7506127 -0.5807874 0.28344092 -0.5211092 0.36880085 0.6757316 -0.030181186 0.80818135 0.86555916 -0.35953945 -1.0743283 1.119007 0.84924525 1.3475146 -0.6471009 0.6324909 -0.40028393 1.2353189 1.1358824 -0.97373974 -0.3065269 1.3684536 0.9279206 -0.22633214 -0.29639402 -0.8677571 -0.06573099 8.709903e-05 -0.31416187 0.013547916 -1.1665199 -0.19735555 0.08976418 0.5242767 -1.0604188 -0.29058734 -0.3753532
so 0.7764878 0.47794077 0.6860297 -0.330226 -0.33105186 -2.1739926 -0.41427997 -0.6416964 -0.15209892 1.1929238 -0.3354471 0.3824193 -0.85337514 -0.6328429 -0.88356596 1.1247215 -0.1413013 1.3648647 -0.14410101 -1.1703173 1.7989361 -0.7423214 -2.8079953 -0.055399835 -0.65891296 1.088805 -0.05823288 0.62917376 -1.7145752 -1.1439679 -2.0166337 -0.3374822 0.47109812 0.4515796 2.0146613 0.21065001 0.10934087 -0.66561097 -0.49847496 -0.1846135 -0.108862296 0.14512387 1.8636922 0.8457845 -0.58526945 -1.1348544 0.49714634 -0.926238 -1.6697809 -1.6851696 -1.7883121 0.26089028 0.20911668 -0.9017441 0.8321223 0.34886354 0.01658559 -0.88135254 1.1486431 -0.78181195 0.32492986 0.4403492 -0.08727017 -0.99276805 0.82116216 -0.2691606 1.5940092 -0.92799574 0.6354991 -0.75221723 1.1208749 0.2566081 0.7637891 -0.043809492 -0.038512968 0.66961205 0.4506112 0.710416 -0.181472 -1.4768523 -0.4008542 0.37115425 -0.505993 0.7154464 0.8539882 -0.7458083 -0.13287328 0.3136649 0.67396337 0.046526168 -0.98404235 -0.12271876 -0.060399335 -0.31803918 -1.5176499 0.41321453 -1.30952 -0.42466596 0.002852092 -0.55154544
just 0.08310113 0.6938248 0.6162173 -0.15856576 -0.6386848 -0.73161143 -0.5969247 0.32375056 -0.07286474 0.6296875 0.50110364 -0.7789694 -1.1416632 -0.09279581 0.8343549 -0.3271584 -1.0660956 -1.0024513 0.33302626 -0.5288047 1.5024748 0.35084537 -1.1028107 -0.061799545 -1.8710644 -0.33167195 -0.9585887 0.0464181 -1.8176304 -0.72558 -1.604866 -0.02732433 0.25956544 0.9222664 0.84355986 -0.08798205 -1.0497936 -0.8112024 0.3122079 -0.26575977 1.1503005 0.6049986 1.0967317 -0.16043964 0.58697176 -0.5497671 0.3456317 -0.0878016 -1.2434865 0.52387506 0.44207132 0.5101307 0.4685794 -1.6347573 0.05855723 -0.032311697 -0.41832295 -0.02882284 -0.6933726 -0.8757367 0.13668613 -0.37807283 0.6681537 -0.7467318 0.36725834 -0.6178231 1.4283853 -0.72844535 0.6362808 -0.6544952 0.060337577 0.4437217 1.0903623 -1.5258665 0.59909654 0.87974787 0.27166274 -0.419299 -0.057580978 -1.048199 -0.5821436 0.72267383 -0.5039525 0.9707629 0.685434 0.32975367 -1.1715343 -0.07317045 -0.6207366 1.6276445 -1.402481 -0.26930472 -0.3073187 -0.3705613 0.5168512 -0.49772364 -0.7554035 0.2571944 0.55895305 -0.6655049
like -0.7317779 -0.59632224 -0.091145955 0.0044240886 -0.8704041 -0.9061818 0.006849449 0.0077798553 0.20637831 1.168795 -1.3747678 0.7224429 -0.6336823 0.45227295 -0.12892395 -0.03995671 -0.08220581 0.37792638 -0.72454226 -0.022147544 -0.18032631 0.37638083 0.21603338 -0.060369574 -0.028577445 0.8719926 0.49081582 0.28743315 0.59704846 0.16221789 -1.7512352 1.1264013 0.346452 -0.12901457 0.22547105 0.59859675 -0.38440564 -1.0902362 -0.15915848 -0.22878559 -0.17362739 0.87356704 0.111764945 0.11298417 -0.16275837 0.56994545 -0.7126539 0.32067892 0.60689986 -0.856178 -1.3683398 -0.65134835 -0.11842796 -0.48456356 0.573535 0.3602418 0.29956192 0.14717723 0.3856919 -0.20976152 -0.6972974 -0.21949705 -0.54671466 -0.26048285 -0.9301477 1.5242248 -0.6908102 -0.079268545 0.27878648 -0.024093198 0.9655749 0.21894646 -0.18579392 -0.38990507 0.3830072 0.027403701 1.2706846 -0.804297 0.79572165 0.370778 2.000363 0.32288367 -0.8932895 -0.4699948 0.11500396 -0.50994664 -0.35470372 -1.2780668 0.21806537 0.17028229 0.6270616 -0.09953821 -0.31672615 0.8574671 -0.637523 0.59774125 -1.2418997 -0.6810497 0.15097885 -0.021305501
character -0.12699987 0.49642187 1.0324697 0.44328773 -1.2571511 -0.19186325 0.1671564 0.79874665 -0.13779993 -0.13108303 -0.08151756 -0.91774815 0.15319362 0.21594934 1.6266996 0.39050198 0.7037212 0.19859809 -1.1703676 0.44592473 -0.6998755 0.36779472 0.17847344 0.30833685 1.3286856 0.23146816 -0.21201226 0.66351646 -0.41577527 0.25654328 -1.0843346 -0.79950345 -0.21382023 -1.598503 1.2192478 0.666649 0.2442194 -0.02803324 -0.11169333 -0.71032983 0.0046100263 0.72571206 0.65867007 -1.2986164 0.19838712 0.42908874 -0.7746832 1.124388 0.4610714 0.7839306 -0.24722877 -0.4440423 -0.48098078 1.0196773 0.96554554 -0.48691803 0.72605324 0.092108704 0.681986 -1.6640937 0.14705418 0.59242314 0.7922374 -1.8163558 -0.042859495 -0.3264061 -1.2565765 -0.8090892 0.4261572 0.029011726 0.11980292 0.52127224 0.06875309 -1.1723976 0.6109153 -1.1454221 0.2011408 -0.63940424 -0.51247966 0.6441374 0.46140963 -0.3234202 -0.019904325 0.7869527 0.54792416 0.06319847 -0.0050873407 -0.43409786 -0.9051045 0.5500826 0.7473267 -0.8294051 1.1037464 0.07072546 0.19353771 -0.5139643 -0.4202354 -0.56003314 0.29352337 0.37632236
there 0.47643337 1.4244794 0.40856245 -1.0730656 -0.31735256 -0.4940201 0.6691755 0.15135987 0.51176834 1.8365086 -0.0871778 -0.7774956 -1.1427844 -0.22185567 0.15753177 0.9038984 -0.039149992 -0.318189 0.3615929 1.504625 0.6267604 -0.26037458 -1.9620124 -0.70520335 1.039342 -1.7849871 0.24896707 0.5398443 -1.598426 -0.3562973 -0.88222575 0.7179899 1.794555 -0.38693222 0.2570585 -0.2274719 0.06857902 -0.4831076 -0.15022308 -1.3068181 1.3050487 -0.06484437 -1.2126648 0.05838383 0.14359848 0.16079938 -2.0061917 -0.54211116 -0.73105544 -1.6896204 0.099437535 0.35998592 -0.5301492 -0.67777157 -0.019944284 0.41300088 -0.7486861 -0.87306035 1.1157529 -0.87534636 1.6486008 0.14807928 0.14060551 -1.3039136 -0.23043342 0.24095319 0.5693552 -0.44805065 -0.0142839765 0.7957808 1.880025 1.3189358 -0.11043205 -2.0809197 0.42104563 0.037360437 -0.25640067 0.016721005 -0.39550775 0.98989624 -0.46615672 -0.556219 0.76801604 -0.56670964 0.31552577 -0.9689538 -0.07941071 -0.24192584 -0.62589145 -0.27085593 -0.17385468 -0.18497857 0.48026407 0.015928615 0.2220188 0.69497687 -0.5744872 1.0219731 -0.1381651 -0.95844966
good -1.5569304 -0.8193483 -0.5186631 0.4178256 0.31949243 -0.2844832 -0.7971987 0.567101 -0.122239746 -0.7852934 -0.6292726 -0.124863006 -1.2439442 -1.2270019 -0.5404707 -0.5745084 0.28271326 -0.23714074 0.1142575 -0.18097076 -0.24398616 1.5808592 0.1491928 0.9112734 0.7759148 -1.3280075 -1.3476049 0.70628506 0.39198932 0.6853879 -2.215185 0.30744213 1.4381975 -0.42619887 0.7688693 0.59242773 0.56359583 -1.3632083 -0.8190855 0.03698679 -0.08447219 0.13907403 0.91211426 0.35523948 -1.0873893 0.19086131 -1.0947455 -0.21180464 0.029061904 0.443347 -0.54656506 -0.19359255 0.25114843 -0.4552931 -0.013681078 0.33395246 -0.2530358 0.92561007 0.6318977 -0.5509411 1.2363842 -2.166396 0.17503162 -0.7618617 0.9890033 0.34023532 -0.7678414 0.2556584 0.40936473 -0.25274098 0.85076815 0.48934102 -0.46693212 -0.114405625 1.4479188 -0.1327402 1.7775518 -0.51524943 -0.022427814 0.22662462 -0.23470591 1.6085856 -1.0522522 -1.7813616 3.3227887 1.4589392 0.22590056 -0.924592 -1.2315425 -0.043164972 0.1558383 0.46821666 -0.24927558 0.12739362 -0.24368139 -0.09899074 -0.255937 -0.67836195 0.1406195 0.4723186
at -0.8375851 -0.60947704 1.6599182 -0.6433291 1.5756003 -1.3931907 -0.09145126 2.3233485 0.5027982 -1.0307258 -0.81744564 -1.1581912 -0.85763234 1.4436378 1.1158206 -0.8263887 -1.3418539 -1.8687698 0.9107558 -0.6003438 -0.74161524 -0.02772182 -1.2260045 1.2485737 -1.0190096 -1.8813101 0.2815353 -0.904937 -1.3392215 0.3407428 -1.9695091 -0.84577715 0.55918175 -0.10414853 1.5528132 -0.44336998 0.8208003 -0.9484686 -0.10886494 -0.12478551 -0.7150892 -1.2760836 -0.21842311 -1.2950115 0.71485597 0.22198495 0.5319687 -0.6518974 0.9868096 0.96606594 0.92742354 -0.60380596 -0.071791776 -1.5453029 0.4138624 -0.052804925 0.29130998 -0.28665355 -0.15864287 1.2690774 -0.5853358 0.7658484 1.2483835 -0.61758083 0.019955937 -0.06975404 -1.922797 -0.28154638 -0.99383026 -0.66566837 0.27263746 0.29981932 -0.078849316 -1.5052944 0.46332264 -0.4712253 0.52641386 0.08491474 -0.36701718 -1.5050199 0.2351646 1.0516492 0.3484425 1.1852387 0.39631104 0.47932565 0.21981949 -1.9894459 0.5863901 2.1034827 1.2516462 1.0749923 0.3680696 2.0638201 1.6092043 -0.42746016 -1.8691027 -0.24326393 2.713663 0.23099817
an 0.4435761 1.3364729 -0.16426815 -1.6162304 -0.020592747 -0.3383762 0.356394 0.27384472 0.27042592 1.3627304 -0.7809749 2.6000013 -1.8334103 0.54091287 -0.41634792 0.43243426 -0.46722227 0.70444834 0.3815717 -0.35136735 0.25652674 0.6561024 0.5241937 0.33972594 0.15276909 -1.3195735 0.42167208 1.3448361 -1.4429164 0.31228393 -0.5432163 1.1119344 2.4970427 -0.07461288 0.28613806 -2.0711591 1.5594628 1.1724272 -1.6578251 0.8059093 -1.0656912 -1.6194009 -0.44482684 1.5323822 1.050102 -0.21617001 0.0037267152 -0.27124146 -0.07991113 -0.36446637 0.040158387 -0.07282266 -0.40258858 -0.59640443 -1.3424535 0.21776374 -1.2593882 -0.22451733 0.9446822 -0.52398735 1.699677 0.024859358 -0.07361005 0.63583857 0.62794906 1.2520069 2.0460103 -1.0150715 -0.9766411 -0.60729617 0.19210622 -0.4008915 0.4084406 1.2372202 -0.20151995 -1.2284074 1.0790979 -0.656432 0.5350044 0.5733909 -1.0751188 0.4287488 0.08581665 -0.8533912 1.3123862 1.9285359 1.0774976 0.09702165 0.69637865 -1.3321756 -0.8496541 0.45766008 -0.65620106 0.23549895 -0.79273725 2.2959933 0.14081368 -0.68714887 1.2720566 0.41941917
well -1.2260215 0.8859321 0.93369514 0.51369935 -0.61005604 0.6528262 0.19249165 0.50822026 -0.936524 0.6752108 -0.23792389 0.833538 -0.9143923 0.15448636 -0.5526798 -0.6033916 0.036164194 -0.18682516 -0.3102749 0.6471953 -0.41694823 0.0015986167 0.078087 0.75264823 0.39882985 0.2724504 -0.79213 -0.079929985 0.958211 -0.107643336 -0.96549547 1.126875 -0.029732509 0.32945806 -0.08674117 0.29742864 -1.4675618 -0.318424 -1.124718 0.31522685 0.12577617 0.4825749 0.77096343 -0.8932154 0.04993779 -0.2702041 -0.44883165 0.8364174 0.033320375 -0.22732094 -0.8089821 -0.43617192 0.67296255 -0.7080909 0.24158102 0.36451405 0.673214 0.08396422 0.42964366 -1.2576556 -0.46508485 -1.1989242 -0.29409876 -0.45445558 -0.42107248 0.44172227 -0.47265238 0.06347792 0.25900745 -0.424875 0.17887154 -0.1020554 -0.2662378 -1.0260093 1.0921423 0.03671243 0.35803437 -0.900543 0.8842789 1.0969477 1.113825 1.2072004 -0.11883246 -1.0583277 1.7028569 -0.5016531 -1.0105468 -0.9171812 0.31103596 0.249597 0.2839276 -0.7720294 -0.194262 -1.3009163 -0.34012622 -0.0040891482 -0.12736407 0.4855717 -0.9162302 -0.6577985
do -0.8210806 -0.3006994 0.4623863 -0.42143 -0.16322418 0.06695541 -0.76042217 0.24370454 -0.11285518 0.2287829 -0.41500455 1.9692007 -1.6181474 -0.78246355 -1.3566245 -0.97619945 -1.9362644 -0.48635393 0.026713813 -0.61573046 -0.6820261 0.521119 -0.29533547 0.42376024 -0.84241617 -0.34810853 -0.23174007 0.12426346 0.7271704 0.35503 -1.291225 1.6688317 2.1248493 1.2485521 -0.5582806 -1.2136732 0.18256408 -0.69473404 -0.5492384 0.26787788 1.1254802 0.5141111 0.35580277 -0.079631925 -0.2700645 -0.065349236 0.29454106 0.16471978 -0.43208912 -1.2499864 -0.37147656 0.060595438 -0.07162657 -1.0992302 0.116541296 -0.79705894 -0.13720752 -0.30611134 -0.03009354 0.2983909 -0.091767766 -0.40024757 -1.3398266 -0.06755576 -0.88798046 0.9666658 1.4350246 -0.27934676 -1.1479244 -0.3493149 -0.2112317 0.026954202 -0.66592216 0.07131586 -0.09146447 0.9141253 2.1246822 -0.27052605 1.6630627 -0.6330639 0.06278515 1.7257302 -0.9644909 -0.8512762 2.5357044 0.5197671 0.5151808 -0.98021156 0.2515474 0.6772537 1.2044228 0.53347933 -1.0102421 0.53760767 -0.23113574 1.0555778 0.27776816 0.29081208 1.1366209 -1.0503473
about -0.17039765 1.5507171 -0.019577086 -0.7065937 -0.2629439 0.6951572 -0.6034027 0.09802664 -0.7918649 -0.012889191 -0.10281327 0.22412089 -0.8256472 0.6517826 0.6795978 -0.34957525 -1.1961821 -0.2159653 -0.34761012 -0.28424048 -0.33412072 0.8538946 0.5407158 -0.16378115 -0.66073483 -0.2892086 -0.5782958 -0.24399446 -0.8850554 0.23071627 0.10132615 1.5066376 0.99147135 -0.109909445 -0.47872573 -1.1276785 -0.03736518 0.15568383 -0.03226898 0.8468383 1.039535 0.006501821 0.070995554 -1.5219138 1.3011819 0.11763909 -0.6734727 1.3852572 -0.3417752 -0.73576987 0.155203 -0.5881237 -0.3669725 -0.80630136 -0.11230452 -1.0780989 -0.5026375 -0.82961714 -1.6566067 -0.3055995 -0.39093247 0.017268488 0.040906977 0.5731838 -1.8268148 0.8441996 1.0054287 -0.26397932 0.22470567 -0.021000266 -0.29666644 0.37055814 0.26106757 -1.1093309 0.017977804 -0.34455302 0.04106306 -0.7100876 0.58427143 -1.1260679 0.54273087 0.45966294 -0.3811315 0.2734876 -0.7303262 0.17625849 -0.18924409 -0.29657683 0.61103857 0.8660296 0.13275568 0.18556769 -0.3519408 0.59364194 -0.031064782 0.93730855 -0.6570187 0.81187236 1.2075746 -0.7183288
by 0.7259505 1.9018302 0.74952716 0.06491087 0.9567375 1.5433502 -0.23377098 0.59872866 -0.3510621 -0.09157719 1.6159881 0.72816294 -0.39587396 0.11987057 1.2263635 0.79666036 -0.28356192 0.6191781 -0.8640744 -2.7555237 -0.31669354 0.809458 1.1969819 1.0914466 1.0626714 0.24742004 -1.894195 1.4480743 0.5999769 0.23622286 -0.5748113 -0.4190195 -0.70304334 -0.1824639 0.4354305 -0.3500466 0.092540845 0.6024612 -1.7952514 1.4909911 0.06534948 -0.9560356 1.0927645 -0.8103554 0.6233571 -0.94502854 0.5218514 -0.29481444 -0.27503565 0.48006982 -0.8098772 -1.5171055 -0.9101754 0.028944567 -1.2483736 0.33420116 0.31062424 0.5960044 1.1437794 -0.74132615 -0.0013439733 0.88754445 0.9460347 -1.4106814 -0.03514124 -1.5380898 0.75240326 -1.202138 0.0008622232 -1.1300722 -1.3270507 0.46892115 -0.32003012 1.1008478 -0.6187216 -1.7352475 -0.70912516 0.36591175 -0.8174527 -0.30400905 -0.5953149 0.5122054 1.1749052 0.45803708 -0.24460311 1.1813744 0.5622438 1.5657215 -1.1235328 -0.14722352 0.8115012 0.45453474 0.64167094 -1.5636216 -1.0216361 0.29529473 -0.6774744 -0.46967942 0.7488117 0.21171966
act 0.5236929 0.8528443 2.172434 0.16528569 -1.3138305 0.22376263 -0.15368325 1.4400706 -1.4895362 -0.2298621 -0.12328037 0.50391376 -1.0091674 0.21554838 -0.7305541 -0.030867886 -0.055603687 -1.5334405 -0.8739309 -0.91083884 -0.353559 1.8684019 -0.68847764 1.6041107 -0.09182052 -0.33094853 -1.3364829 0.38360265 -0.45198864 0.291545 -2.186691 -1.4295388 -0.36412507 -0.4138819 1.9202546 0.5196102 -1.9700421 -0.28979766 -0.0557464 -1.1276814 0.36599547 -1.9685425 1.8338742 -1.5235498 0.78118056 0.57252824 -0.09005263 0.8257855 1.244312 -0.13973649 -0.8620321 0.47360685 -0.1903962 0.45071667 -0.4358189 0.5768298 -0.98699 -0.025574008 -0.04062887 -0.8624339 -0.7507831 -0.19048144 0.66480726 -0.91226727 0.18541762 -1.1181853 -0.4856297 -1.2507672 0.5997722 -0.22465025 -0.67144114 0.54231364 0.29093608 -1.784728 1.045647 0.7696667 0.0906579 -0.8141703 0.21581501 -0.1661533 -0.254431 1.2543937 0.50939447 0.72162795 1.3191041 0.5957253 0.07336509 -0.27136722 -1.3832505 0.009499026 -1.2735597 -0.93859917 -0.747624 -2.2809968 0.37597862 -1.7985536 0.20137554 0.106456056 -0.0433813 -0.90276325
time 0.12078233 -1.7639768 0.2439387 -0.23732805 0.87198627 -0.94506437 0.08804863 1.7828972 0.5623795 -0.047813166 0.35650548 0.4213403 -0.9579772 -1.3677938 -0.14806734 -0.8502523 -0.7920812 -0.92958677 1.1943673 -0.99811834 0.51446635 1.0623802 -1.201344 -0.25769147 -2.0516183 -1.200165 -0.20204899 -0.13983572 -0.77856374 -0.49724874 -1.3507196 -1.4118574 0.91473156 0.9179678 1.2259256 -0.093883306 0.09453204 -1.73774 -0.4701449 0.19500764 -0.09060877 -0.374806 -0.00971964 0.59153956 -0.22325712 -1.8385013 -0.18774448 -1.4947896 -0.14240856 1.738577 1.7248056 0.4250413 -0.34869444 -2.10442 -0.6621927 -0.29805768 1.3047895 -0.30943754 -0.19806372 1.1008191 0.6338285 -0.4155488 0.9839697 -0.4301774 1.7874424 -1.3408983 -0.1455444 -1.2419744 1.2249358 -0.22331205 0.3776713 -0.85214543 0.16282013 0.20363536 -1.1015371 0.48309416 0.8496881 0.5440153 0.022265336 -2.1459827 -0.99643683 0.6250463 0.13973409 0.44000417 1.711594 1.0133047 -0.21542685 -1.2186728 -0.17410651 2.186803 -1.1604148 1.5123233 -0.1568348 0.9809835 1.5635766 -1.6411086 -1.9356126 -1.3788819 1.7561235 1.2714677
watch 0.18264273 -1.837996 -0.9478052 -0.20604 0.04843959 -1.7389431 -0.093178056 0.5827215 -0.4523411 0.08437961 -0.64422375 0.63749593 -0.5137729 -1.4881458 -0.32617196 0.29732364 -0.15125512 0.3578425 -0.3010482 -1.2036004 1.0758523 0.34392855 -1.0483016 0.34352937 -2.6733744 0.24129008 0.038638175 -0.8204622 -0.038606185 0.27699184 -0.030269746 0.37993667 0.6845849 0.64872926 0.6397723 0.8954388 0.054293796 -1.2797118 0.15771179 -0.8790896 0.10313947 0.5053998 0.11054597 0.18235373 -0.3433463 -0.9712428 0.9194571 -0.44110626 -0.6167313 0.021811027 -0.07966453 -0.04634962 -0.57086354 -2.9526825 0.0611075 -0.45857993 0.17992216 -1.1692393 0.60500664 0.36876857 -0.6704139 -0.70270395 0.81452644 -0.2836473 0.37773594 0.05903535 -0.033403303 -0.61619836 -0.26460046 0.16141894 0.17907517 -0.25366628 0.589699 0.62551534 -0.91824144 1.0133222 0.9780948 0.34343132 0.017459633 -1.1747212 0.9435351 0.66009533 -0.14871101 0.33587265 1.685088 0.84058833 0.5638316 -0.6910764 0.7652768 1.0962026 0.020521473 0.15245168 -0.5864466 0.96345747 -0.92421114 0.8592777 -1.2052132 -1.5437253 1.6342942 0.1646217
from -0.16498208 0.58034235 -0.39158154 -0.09580068 0.06128097 0.5162618 -0.15474544 1.2075149 0.14134237 0.35304523 -0.016523907 -0.6013588 -1.2310283 0.7900205 0.19661732 -0.20996991 0.7230611 0.24605888 -0.22485493 -1.5099102 0.48925385 0.537796 0.39083493 0.71819174 0.18847306 0.6451234 -0.97377074 0.08378521 1.2240369 0.369425 -0.42831331 -0.10780935 -0.62882584 -0.49119577 0.9746834 0.11283512 -0.61172545 -0.253842 -0.9760099 0.22563532 -0.13140973 -0.7199661 1.0154002 -0.171726 0.9741983 -1.108923 -0.24595404 1.174321 0.04669444 1.2545295 -0.32242507 -1.1825044 -0.4850075 -0.5819812 -0.52073395 0.82784474 -0.15984681 0.7391869 0.27585766 -0.8028232 -0.6352319 0.087566234 1.8597331 -0.65587455 0.061656434 -1.6788809 -1.1664402 -0.61537015 0.18499844 0.56283283 -0.7899086 -0.39129737 -0.13840829 0.7395822 0.628645 -1.596874 0.2421312 -0.24743569 0.3246738 -0.6315246 0.4358279 0.4470282 0.024615366 0.07696765 0.5126324 1.1675239 -0.20924819 0.9275663 -0.46200368 -0.6460644 0.15321676 0.13303259 -0.27833596 -0.9100592 -0.53710693 -0.104937956 -1.061818 -0.49610078 -0.2634624 1.4851589
if -0.24961646 -0.5750572 1.2982212 0.2903777 -1.3343287 0.6732641 -1.3370616 -0.36957946 -0.37296912 1.2979164 -0.88366395 1.0742542 -2.336894 -0.8219613 -0.85311127 -1.4166644 -1.5981599 -1.7542076 0.04530218 0.29570985 -0.46006328 -0.9212373 -1.2603562 -0.60810554 -1.9966102 0.3605588 -0.5120237 -0.41414097 -0.7650194 1.2198135 -1.035592 1.0344596 1.3815506 0.72524107 -0.905073 -1.1827329 -0.49855983 -0.64508533 0.36177334 -0.59954655 1.3226515 1.0636312 0.5109141 -1.225326 0.36922905 0.19634421 -0.12091246 -0.6457524 -1.0711849 -1.9322649 -0.19629078 1.1107166 -0.66567665 -1.4908333 -0.17496493 -1.7795304 -0.59265757 0.36736995 0.893215 -1.0658706 -0.32725444 -1.5338457 -1.8336604 -0.5698778 -2.0600073 1.4709982 1.5525545 0.7628615 -0.52850664 -0.68928045 0.32429007 0.6841225 -0.58266693 -0.70707077 -0.08418312 1.6164109 1.1066741 0.9112602 1.8153257 -1.2720277 -0.29812363 1.1354185 -0.57982963 -1.3096622 2.0947452 -0.20446436 -1.2191976 -0.32597998 0.65074444 0.7948018 -0.2969966 0.35143518 -0.44482085 -0.4400021 -0.17343505 1.2889575 0.81257826 1.1317728 0.21592939 -1.3063632
great -0.020607207 0.96059465 0.6577673 0.11711931 -2.2411656 0.66290295 -0.58319706 1.2007082 -0.4241408 0.94428885 -0.5847736 2.5820472 -1.9930819 -2.0811489 -1.3127556 0.20601915 1.0508599 -0.057934392 -0.42484492 -0.035374343 0.6252888 0.25467804 0.55898345 -1.1997926 0.61969227 -0.35371798 -1.2966633 0.24828194 0.35522422 1.3084751 0.7486831 -0.5964195 0.032108635 -0.2696881 1.3426565 -0.4557523 -0.7107428 0.8901801 -1.6234218 -0.44403487 -0.001339222 -2.1745083 0.92435485 0.18936376 1.2359917 0.683745 -1.2339243 0.12378209 0.7126789 0.053937167 0.17818096 -0.028973633 -1.0884691 0.43089348 -1.9146178 -0.3184444 -1.5757585 0.860383 -0.26018542 -2.815187 0.39366445 -0.026121467 -1.0044214 -1.3233713 -1.7494223 0.32383624 -0.47382703 1.1007131 1.3428465 1.2531037 -1.2988338 1.6356999 -0.62945914 1.3826431 0.35559827 -1.265777 1.1742766 -0.82602197 -0.5130293 0.36954674 0.5722728 1.3130455 -0.29074913 -0.52224594 1.8104428 2.3009264 0.69881696 -0.31069797 -0.61321265 -2.0380023 -0.37153006 0.19197863 0.45185417 -1.2898197 -0.3289207 1.498235 -1.0569246 -1.8786684 0.13108622 0.028599968
he 2.1306188 1.3356314 1.4184468 0.14926022 0.44245425 0.3134609 -0.67966247 1.1665552 -0.71269614 0.2320141 1.8762076 0.7721938 0.2703013 0.58883756 -1.5677048 0.3147938 -0.08582052 0.61536324 -0.93110627 0.5466841 -0.9706538 -1.5735315 0.3853559 0.6089186 0.18066558 0.05523028 -1.5415624 -2.205459 -0.27137136 -0.23847435 0.75951976 0.4836072 0.11813821 1.270918 -0.23431139 -0.8919613 -0.105550796 1.2953222 0.11617391 -1.6221344 0.7133155 -0.70498496 -0.5778993 -1.6459262 0.83813494 0.15704308 -0.7123909 -0.36866742 -1.143397 -1.0869114 0.67929757 -0.6290432 0.52866125 -1.8193907 -0.5187173 -2.6295311 -0.8184363 -1.8657404 1.6269442 -1.4529744 -0.066473424 0.028895378 0.5741793 -1.9807147 -2.0537589 0.078583755 0.36384854 0.033517268 -0.22250003 0.58128065 -1.5863584 1.5143539 0.42162216 -2.0874453 -0.9183509 0.43851796 -0.1451991 -0.5888481 -0.83991957 -0.5150324 -1.1002848 1.0433551 1.8141804 0.11594275 1.2420624 -1.0776966 0.7109652 -1.7451059 1.1622279 -0.4637684 0.78131694 -0.38387066 -0.9800268 -0.44234642 -0.6168285 0.39258474 -1.6321634 0.7456286 0.5037667 -0.31015763
out 0.38663957 -0.96860003 0.062675536 0.013437376 -1.2891654 0.10675814 2.2624009 0.39135587 0.1624255 0.27773863 -0.39569116 0.76152027 -0.45019272 -0.6811292 0.54205644 0.57483685 0.8184477 -0.32620648 1.3507793 0.12633413 0.140038 -0.57424456 -0.946647 -1.731354 -0.9278604 0.37459195 1.2361147 -0.7795655 -1.5576769 0.34336212 0.56201637 0.33528662 2.2971616 -1.5342684 0.31629515 -1.4142611 1.2599486 0.5235056 1.4991695 -1.4739065 0.9867459 1.3555908 -0.61021817 -0.22087395 2.223364 0.30710584 -1.1805544 -0.118035235 -1.0364338 -0.2815891 0.4424534 1.2203261 -0.82330614 -0.08192996 -0.6646757 -1.1839925 -0.47280273 0.5551441 1.7589194 0.17621852 0.5131636 0.9991509 -0.36855844 -0.6000519 -0.64153665 2.2876637 0.9229914 -0.84719175 0.36686733 0.9267093 1.1562897 0.35678795 -0.8849187 -0.0474176 -1.3927675 -0.64243466 0.84717506 1.4046966 0.4839442 -0.58603877 0.13076697 -1.4429548 -1.334634 0.0034254787 1.0550188 -0.32514942 0.23003568 -0.9387433 0.36640266 0.40514195 -1.2140924 1.2305505 -0.9431153 0.87649703 -0.21591371 0.3724513 -0.13630268 -2.2131846 1.5934844 -0.82072705
his 2.1351569 0.77881014 1.1473968 -0.8032046 0.43645057 1.1758937 -0.5557691 2.3038087 -1.231302 0.5413874 1.1459395 1.3895829 1.299824 1.6020412 -0.40136433 1.4486221 1.1460602 0.18493381 -0.181175 -1.2601539 0.32321927 -0.7934489 1.6791441 0.79557043 -0.6585154 0.8722964 -0.7731468 -1.1554558 0.6505177 -0.8783514 0.3264734 -0.5709619 -1.5666106 0.1869178 0.8409784 -0.91729414 -1.4526521 2.0652652 0.18730284 -0.6907618 -0.13598639 -1.9955462 -1.3002148 -1.6380742 1.8094409 0.4320535 0.35308853 -0.03586569 -0.22840297 -0.5104839 0.7619236 -0.08044263 0.6905364 -0.955702 -0.50713867 -1.0879653 0.2508135 -1.4263214 0.98061776 -0.41299018 -1.6926215 1.4945396 1.7745234 -1.1485744 0.031827994 -1.2739635 -0.006031822 -1.1004524 -0.19372156 -1.0355865 -1.8002518 -0.024272159 0.6575941 -1.2674185 -1.4405684 -1.0334445 0.07069476 -0.5849543 -0.3267598 -0.12422699 0.6837241 0.6383212 1.3447601 0.95812273 -0.32495525 -0.2792547 0.6148046 -0.68028784 1.9278151 0.33506972 0.17943506 -0.1608205 -1.8348696 -0.72577417 -0.043518674 0.27794445 -1.1786568 -0.80696315 2.1020122 1.6795466
or 1.2287567 0.812803 -0.6302887 -0.6177478 1.0486164 1.0890481 0.5990078 -0.69901335 -0.92064 1.1709782 1.05476 -1.0953146 0.0073311995 1.3037819 1.6852493 0.4005435 -0.765759 -0.31602147 -0.3606564 -0.2713676 0.3663517 0.5685335 0.43792963 -0.7779225 1.1055992 -0.29391357 0.060168274 1.1814424 -0.49964145 0.70843595 -1.4757872 0.8264543 1.5511566 -0.81147903 -1.1331744 0.19206475 0.61422825 -0.9949313 1.4630675 0.21987021 1.912045 1.9717108 -0.57473093 -2.1996963 0.81773037 -1.5505942 -1.217929 0.7499053 -1.8464328 -1.0631715 -0.27666497 -0.46855307 -0.39978537 -1.1152664 -0.3934104 -0.75315464 -0.62419707 -0.93181944 1.663146 0.73444176 -0.80641586 -1.4177731 2.3159137 -0.4641861 -0.029300744 -0.5950342 0.017301267 -1.1812137 -0.4169624 0.20570375 1.5655951 -1.3281156 -0.39015558 -2.0735562 -0.62028474 0.16240509 -0.46220434 1.7138057 1.5098363 -0.25844026 1.2826539 0.09458144 -0.13515355 -1.0159391 -1.3154216 -0.276855 -1.3483822 1.3190955 -0.7300382 1.754751 -0.012909971 -0.2407262 0.0688276 -1.1614926 0.2359079 -1.2322357 0.23909642 1.1786642 -0.112140365 0.9912593
really 0.45229754 -0.47770023 -0.05040917 0.8012904 -0.6902714 -0.8971817 -0.40593806 1.497548 -0.42780378 -0.14419009 -0.36922547 0.058181506 -0.8522327 0.4137358 -0.093464516 -0.10892392 0.29347172 -0.019494068 -0.3446086 -0.5278573 0.93013006 -0.41258055 -0.014485601 0.58628845 -1.0595227 1.1523678 -0.76577324 -1.599097 -0.80051553 0.24642636 -1.1040868 -0.48785567 -1.8628097 1.550589 0.46411088 0.83794475 -1.2587517 -0.5783559 0.37462592 -0.38192472 -0.5840149 0.9353105 1.6509418 -0.8926696 -0.2210545 -0.40665567 0.16624108 0.19487604 0.07286711 0.7942783 0.61430365 -0.21279986 0.85414934 -0.87383693 0.14716987 -0.9235045 0.88536775 -0.179693 0.3127658 -0.8353553 -1.3704803 -0.4085262 -0.03791009 -1.2248496 0.6179786 0.4742515 -1.4101058 -0.39539024 0.002923018 -0.90607905 0.10461028 -0.31050408 0.8671923 0.033212643 1.0037725 0.6753898 1.4558781 -0.4792264 0.12622271 -0.8188157 0.8274701 1.3486212 -0.07114276 0.18219014 1.6504402 -0.122962065 -0.66973203 -1.2031368 0.7891673 1.002829 -0.63937706 -0.51827705 -0.21242236 -0.552609 -0.10208435 -1.198931 -1.0537858 -0.8326733 0.48471987 0.3842792
even 0.051925305 0.17982578 0.18228744 0.16476525 0.3298241 -0.79235166 0.0030470872 -0.103353165 -1.0727354 -0.31255364 0.13059555 -0.2460333 -1.6847085 -0.51054984 -0.54971564 -0.11923159 -0.5280631 -0.4891597 0.31069794 -0.2988691 1.411385 0.47087398 -2.1139727 -0.28937495 -0.8128816 0.050431028 -1.0698118 -1.7684436 -1.4707627 -0.4365886 -1.525305 -0.15429974 1.5448346 0.42139372 0.95317876 -0.12387271 -0.004978583 -1.9397125 0.77661914 -0.14056513 1.4557753 1.1434512 1.9975488 -0.6055696 -0.5339859 -0.6578014 -0.0856513 0.57644695 -1.3961431 -0.5944311 -0.3754577 0.71305656 -0.32519138 -0.66019905 0.5607325 -0.5275887 -0.36675727 -0.62741584 1.022522 -0.39576095 0.10553928 -1.7241685 -0.2203878 -0.8804538 -0.25369605 0.691297 0.99829113 -0.37717575 0.775009 -0.42095688 0.67189366 -0.23441452 -0.6325407 -1.2162226 1.1511472 1.2453195 0.5037708 1.6455421 0.8709599 -1.0245603 -0.74537474 0.79396045 -0.93910307 -0.5927905 1.5676038 -0.011111531 -0.346387 0.4362706 -0.0148223685 0.3132524 -1.0362698 -0.31745884 -0.069861844 -1.934151 -1.656553 -1.7759421 -0.7093835 0.30581236 -0.2984475 -1.0809902
who -0.070668235 0.45985207 0.75972337 -0.14289407 0.9316772 1.7231474 -0.5941197 -0.09945367 -0.655909 0.22476375 1.0782305 1.9647909 0.7664753 -0.4745333 0.23564212 0.91092616 -1.2214569 1.7727822 0.70396745 -0.09125689 0.71257645 -0.40244895 0.96288574 1.0244515 0.8717409 1.2315192 -1.4527116 -0.14602607 0.7445257 1.4365672 -1.0834414 0.66042084 1.0837224 1.1654813 -1.1430728 -0.65994287 0.1001631 -0.7994501 -1.4266614 0.9654047 0.02621209 1.9188533 0.625138 -0.7988311 -0.1518662 -0.35906294 0.12598048 0.23505937 -0.6931348 -0.11668208 -0.6531417 -1.7051622 -0.70479673 -0.044415876 0.17561074 -1.3004578 0.10501163 -0.53682363 1.6989208 -0.80062956 -0.9894874 -1.9813024 0.2948212 -0.5424352 -0.22497618 -0.4356121 -1.1108463 -0.789703 -0.6461172 0.18377629 -0.32348305 -0.5865339 0.24002326 -0.09091834 0.05031488 -0.01792772 0.94119835 0.7651921 0.7211636 0.2275249 0.5037602 1.1612469 0.56969875 -1.9175613 -0.24736243 0.6822046 1.023105 0.45721748 1.0151873 1.1773854 2.5091395 -0.46834406 -0.015658883 -1.655736 -1.1450685 -0.26250273 0.3125355 -0.8439793 -0.4919822 -0.90383273
can -0.28702053 -0.25729594 0.2729371 0.41122553 0.43184572 1.6135917 -1.5392852 0.3936896 -1.4124655 0.7521668 -0.076593876 1.8875146 -0.38235515 1.0557961 -0.353726 -0.9364452 -0.7627977 -1.5933769 -0.07978619 0.43651497 -0.5449631 -1.6647305 -0.16729185 -0.51752466 -1.5451797 0.5509153 -1.7556497 -2.4275496 -0.9515669 0.8730925 -1.5796016 0.9549781 0.67057973 1.1250366 -0.8847067 -1.6395153 0.14742622 -0.6483678 0.47030863 0.40040958 0.31199896 1.3943334 -0.3636791 -2.4391372 -0.051089566 -0.71416235 0.13559638 -1.0921394 -1.155135 -0.5686098 0.46953684 1.0179546 -1.127064 -1.4128376 -0.73850685 -2.2749465 -0.024285207 -1.365298 0.88759613 -0.35944653 -0.98359406 -2.5979347 -1.1336033 -1.0661609 -1.0681562 1.4521008 0.45662317 -0.972633 -0.09996704 -0.6917743 -0.89555985 -0.65272444 0.83864444 -1.1584569 -0.3995608 1.2229689 0.7542428 1.3944619 1.542838 -0.7996101 0.18287279 1.2721782 1.3598121 -1.1436712 0.72152853 0.30646518 -0.33282334 -0.8912427 1.3776288 1.6531774 -1.0565344 -0.14187053 -0.13748777 -1.167025 0.36926383 -1.4818293 -0.25175926 -0.028669255 1.3693726 -0.7024479
my 1.3266392 -0.8227455 0.5327311 -0.28493205 0.48499176 0.44241637 -0.4964261 -0.27171394 1.1622692 1.3140585 0.39363143 1.4258205 0.31532595 -1.2988571 -0.8591211 0.47022945 1.2368672 0.7368322 0.48094937 0.42249832 -1.0152724 -0.6951467 1.1804497 -0.6935056 0.17293495 -1.1355978 -1.5108219 -0.52794087 -0.43649432 0.22945468 0.55761987 -0.6442441 0.72730076 -0.4853326 -0.64019006 -0.0452651 0.778502 0.58511424 -0.6736254 -0.5020779 -0.19864628 -0.27893648 -1.3422701 1.2790271 -0.39604104 2.0586042 -0.5131743 -2.0150094 -0.3782446 -0.113562874 1.3815175 -1.2119367 -0.66854775 -0.882113 -0.779783 -1.8738238 -0.28213844 -0.5108927 2.0274117 -2.153505 0.45380157 1.4960886 -1.369645 -1.6707821 -1.7100103 1.4710606 -0.4413944 1.1888264 0.18349284 0.3631524 -1.4677073 -0.30363742 0.37298 0.5149036 -1.4543831 -0.5624641 0.514871 -0.47454736 -1.0701908 -0.09849983 -0.25567874 0.14171273 -0.34419283 -1.1452807 1.3252015 0.41817892 0.9038369 -1.7469324 1.4065692 -0.30101874 2.0312297 0.119159795 0.20700997 1.4211631 -1.3832945 1.6755844 -2.7164154 -2.3319626 1.685372 0.57428044
scene 1.1078268 -0.64133424 1.0931503 -1.2037522 -1.3558171 -0.11782159 1.4963052 0.76380265 -0.18569647 1.036725 -0.90260065 -0.82824147 0.3721782 0.2610901 0.49289402 0.40908846 0.41124377 -0.4722348 -1.0169938 -0.015107063 -1.1899136 1.2006577 -1.0390223 0.6159175 0.6238235 -0.35394797 1.6446613 1.6998954 -1.0710192 -0.08343971 -2.2066905 -0.35361338 -0.093043156 -2.8294427 1.8017287 1.5758749 -0.11875345 0.24669334 0.031813953 -1.3320446 -0.43844202 -1.7653366 -0.11613436 -1.1036558 0.5046114 0.21674052 -1.4264444 -0.3825763 1.5190532 -0.80674106 -1.0264174 -0.6118859 -1.0281602 0.1824715 0.69456464 0.6223973 -0.14140417 -0.60189176 0.32816973 -0.068518616 -0.3175973 1.0706156 1.2063621 -1.156639 0.37527567 -0.23359017 -1.5362258 -0.8007971 0.28699118 0.5380199 1.5803821 -0.016748782 -0.35782096 -2.1077018 -0.47347206 -0.08662295 -0.56666344 -1.307752 0.37819892 -0.16237989 1.7581412 -0.38854587 -0.8527654 0.33623034 0.27444676 -1.6822852 -0.12194887 -1.021246 -0.6979268 0.51510614 0.60140526 -0.15865001 0.1651469 0.8744029 0.54086477 -1.0584849 -0.44013917 0.06273179 -0.16004041 0.8418703
love -0.4390101 -0.8301155 -0.5919016 0.21195933 -0.3546851 -1.3056198 -0.13512745 0.27557606 0.13394326 1.2196459 -0.5001214 1.3334937 -0.8522227 -0.14437409 0.35121134 0.4292248 -0.09571017 0.69139516 -0.7912322 -1.1560262 0.49231762 -0.17380866 -0.7895155 -0.47048885 -0.9970815 0.9274269 0.6120212 0.20186096 -0.38010702 -0.15571913 -0.7003588 0.1371053 -0.34621882 0.041511633 1.0355525 -0.2026858 0.72759473 0.08369664 -0.5634109 -0.25385493 -0.70237654 0.27090308 0.7586922 0.1795586 0.043149237 -0.7644033 1.064319 -0.78059816 -0.8838335 -0.3358799 -0.77612585 0.068037234 -0.3536932 -0.883537 0.0600397 0.06333571 0.72571325 -0.36192152 1.0123953 -0.35326248 -0.54627126 -0.2249339 -0.519842 -0.4378344 0.00016063954 0.7435485 0.7263838 -0.042313647 0.08245067 -1.5177075 -0.082183965 0.015611087 0.03350812 1.1330405 -0.4767916 0.07545059 0.6841739 0.81025046 0.5888892 -0.24227901 0.5342512 0.4449567 -0.79334956 0.5038037 0.33342856 0.15676732 0.025654202 0.0189859 0.56227654 1.0253438 -0.17837916 0.42409313 -0.35236135 0.61707336 -1.2047948 0.6476045 -1.0098075 -1.0137559 1.1632038 0.22369117
most 1.7824428 0.80965227 0.8263078 0.0002319395 -1.4032699 0.6727686 0.9470838 1.4285895 -0.8700023 0.9398092 -0.15672731 2.3317845 0.17306726 -0.334672 -1.0169579 0.21190184 1.7853934 0.40911788 -0.23822106 0.3860648 0.12997675 -1.4637424 1.429936 -1.9911892 0.37211984 -0.26315102 -0.09376214 -1.3871392 -1.3813128 0.07888007 0.8540995 -2.58374 -1.4202813 -0.71102387 0.390148 0.39213273 -1.6752852 1.035144 -0.7632699 -1.1680043 -0.7578816 -1.7504202 -0.7306429 -0.36705482 1.5470428 1.1500896 -1.5258904 -0.16005662 0.9205385 0.44109994 1.6370099 -0.42207402 -1.5252888 0.105014116 -1.2436355 -1.2700901 0.5784877 -0.37675902 2.2128496 -2.6321564 -1.0847782 1.3264798 -1.5731657 -0.7934795 -1.4323555 1.7741842 -1.247853 -0.6037651 1.5954905 1.0094821 -1.1164347 -0.2857122 0.4913327 1.2130486 -0.46502098 -0.6512261 0.2215931 -1.6429564 -0.15470178 0.6871016 0.93812037 -0.5791904 0.026119452 -0.07358383 0.18122432 -0.6900662 0.18346599 -2.5172694 0.85760427 -0.3363815 -0.98864716 -0.19626518 1.1977956 -1.6909726 0.24805446 -0.8087687 -2.3732755 -2.3827357 0.9886843 0.71860933
how 1.0430005 -0.41213912 -0.2740827 -0.02944691 -0.2698965 -0.99686325 0.53974986 1.1270189 -0.74344933 0.28936657 -0.42076024 0.47457966 -1.3739989 0.81178474 -0.86593527 0.012275075 -0.50862646 0.7077708 -0.24717468 0.13341747 0.22191682 -0.6053292 -1.7152753 -0.07205474 -1.1581669 -0.18966088 0.45636934 -1.3629735 -1.5649114 -0.18874723 -0.3400676 0.37185046 0.14359109 0.36385393 1.1851751 -0.08214573 0.81281805 0.88316935 0.2094736 -1.3011059 -0.46197203 -0.77506983 0.41798604 -0.22700001 0.53849536 -0.4301971 -0.3237684 0.003438303 -0.6797655 -0.5885683 -0.3975677 -0.41912675 -0.06673409 -1.8916749 0.06841824 -0.5448403 -0.8614056 -1.2754358 0.75784194 -0.22448017 0.43124002 -0.6584811 0.75616354 -0.32991818 -0.69678813 0.64620084 -0.30995977 0.22631934 -0.09616945 0.6110459 0.27628583 0.6319498 0.25785294 -0.475176 0.44594908 0.8341013 -0.24699014 0.07024628 0.010474955 -0.6572712 -0.3655926 0.6463137 0.2007051 0.5231598 0.8364751 -0.48736644 0.5910404 -0.74725634 0.3827086 -0.12919009 -0.2757259 0.61557025 -0.97034234 0.49934712 -0.45642763 -0.7006102 -1.010597 0.91241944 0.106302895 -0.96885806
story 0.5484346 1.2064883 1.8963734 -0.077900514 -0.8378086 -0.5664096 0.5446735 2.48915 -0.6031969 -0.656112 0.33631217 -0.520442 -1.1178347 0.47116438 -0.30290046 0.381388 -0.10676219 -0.24987338 -0.67550826 -1.8847871 -0.060945973 0.8285993 0.57593715 0.17790285 0.5689836 -0.41613975 -0.13581167 1.5053294 -0.13320729 -0.9764072 -1.90489 -1.5745928 -1.90146 -0.53507054 2.692499 1.2154881 -0.8200168 0.7551325 -0.67157423 -0.61087155 -0.02790574 -2.7911816 2.0409732 -0.12229344 0.18434165 0.11168783 0.4689241 1.3009704 1.119114 0.6724724 -1.4125309 -0.34912568 0.54097193 0.5631189 0.5444681 0.15129489 -0.7457584 0.18392228 0.06549236 -1.1472603 -0.45647016 1.5012603 1.528173 -0.79786575 1.0765982 -1.3691127 -0.48239926 -0.41238952 0.9601471 -0.54163826 -0.4813525 0.6336692 0.072724104 0.32472593 0.9061482 -1.1272321 0.021048438 -2.2416952 -0.51416254 0.18957433 0.30065745 1.4389573 0.10740261 0.2699435 1.8396919 0.53373015 -0.26815358 -1.2365444 -1.6420549 -0.40766406 -1.1872609 -0.14135017 -0.20712687 -0.8619709 0.7983863 -0.4432665 -1.4423074 0.1546587 0.6377316 0.278407
more 0.06684511 0.9210394 0.3953948 1.1163454 -1.2185436 -0.24544226 0.11485821 -1.2835342 -1.6819046 1.1273245 0.16380495 0.106766425 -1.8216377 0.25751233 0.9555359 0.27592778 -0.29627714 -0.10338505 -1.1934743 0.97661525 1.074469 0.33860043 -0.39207536 -1.2039338 -0.21437976 0.8318629 -0.3025012 -1.0613642 -0.73279893 -0.23940681 -0.9368288 0.5586272 0.5291735 -0.2731305 0.22356325 0.8354374 -0.7948301 -1.7796364 0.4256815 -0.25086316 2.1512015 2.5573444 2.0279245 -1.1498935 1.5104619 -1.394607 -0.30531764 1.5885122 -0.80518013 0.23493169 -0.010821553 -0.3553352 -0.16430166 -0.5019442 0.13271299 -0.57459307 -0.00321028 -0.8437863 1.7925799 -1.5843852 -0.54346514 -1.1874174 0.44270188 -0.685029 -1.0183965 0.6229692 0.82524186 -0.3558462 1.6086838 0.8303712 0.1479625 -0.14472717 -0.5404484 -0.53853065 0.606486 -0.2670954 -0.48252246 0.0443558 0.76827425 0.43736154 0.3465141 -0.24795446 -0.15833229 -0.7989128 0.6796854 -0.5262269 -1.1741817 0.17189696 -0.8020372 -0.17288183 -0.79988146 -1.4644666 1.1381626 -2.6926816 -0.32034576 -1.056417 -0.59705645 0.26500455 -0.8441896 -0.6240856
no 2.0355833 -0.08145503 2.4439068 -1.6816996 -0.46146697 0.798763 1.2363493 0.42529202 -1.0518861 1.7974573 -0.03738505 -0.48039207 -0.42863825 0.4698246 0.7454394 1.1785455 -0.12832615 -1.0399603 0.634879 1.554515 -0.6065003 0.56029457 -0.9251119 0.12870893 0.27637133 -1.1939152 1.3552388 0.71866584 -0.648556 0.24984333 -1.210897 0.41274223 2.0874712 -2.3827965 0.13045658 0.23553988 0.1872887 0.034581397 1.3835925 -1.8163571 1.6391838 0.17088117 -0.72014225 -1.1558783 0.93821776 0.016236082 -2.0679371 0.11204226 0.37659138 -1.6885973 -1.0577288 -0.028368674 -0.99876106 -0.71174276 0.13339333 -0.16240512 -1.5528624 -1.4555476 1.2842913 -0.36850828 -0.35841256 -0.19721258 1.720568 -0.869671 -1.0144631 0.100627206 -0.672132 -0.60621095 -0.46167034 2.0537019 1.4324833 -0.77748686 -0.52828676 -3.5800128 -1.7848938 -0.14955896 -1.1277773 0.9482348 0.99602604 0.63281816 0.3946601 -0.060253352 -0.5179233 -1.350203 -0.57860184 -1.4202577 -0.06484901 0.544558 0.041237596 -0.38070422 0.6874002 -0.025222266 -0.48217025 -0.30694088 0.25090575 -0.023627313 1.1660863 1.7204577 -0.23413667 -0.16641578
they 0.0736981 1.47098 2.339191 0.37964574 0.92840934 -0.599163 0.09625338 -0.2555056 0.6012741 0.49573433 0.21915579 -0.4314758 -0.77315825 -0.8816322 -0.35797465 -0.30621386 -1.5760645 -0.098994955 0.12127589 0.57892656 -0.4680973 -0.8039304 -2.081204 -0.20411803 0.3216765 -0.66439795 0.3186588 0.4761847 0.31694877 0.6790182 -1.0082744 0.16396955 1.8307642 -0.70629555 -0.33448187 0.30031857 0.7870547 -1.7130858 -0.047160786 -1.1940074 0.7005774 1.4717896 -0.43039677 -1.4239187 -1.296244 -1.438597 -1.3752611 0.17032368 -1.5343901 -1.6665393 -1.3136406 -0.2840761 0.3117595 -1.0283358 1.1796104 -1.3262805 -0.3759759 -1.1254463 1.9801062 -0.81286573 0.10709387 -0.69934 0.14300366 -0.78068227 -0.8840969 0.047566537 -0.06617086 0.18746713 0.17155519 0.7429072 1.444418 -0.2139237 -0.50838983 -1.9612627 -0.50381714 -0.09248451 0.7446994 0.24980001 -0.1360248 -0.467664 -0.76433754 -0.62504464 0.16571538 -1.1214321 0.47926706 -1.5777377 -0.44521946 -0.32859161 0.37515903 0.71751314 1.458612 -0.13561873 0.5290117 0.64961797 -0.28621763 0.71510726 0.6059994 1.1778694 0.02689389 -0.65490043
only -1.2354561 0.3143995 0.70334774 0.9310021 0.70438766 -1.3625458 -1.1543636 -0.5661076 -1.0692729 -0.00632808 -0.66777545 0.30221975 -1.0655569 -1.0321583 -1.3807005 -0.94237894 -1.2315998 -0.57199043 -0.9064804 -0.22252272 0.1407349 0.6148277 -1.0856334 0.400762 -0.4428723 -0.59835064 -0.9153729 0.2606831 -0.63709503 0.31229752 -1.6981254 -0.13936743 1.2382709 -0.64493 0.23528846 0.24086557 -0.058069263 -1.9544784 0.012419102 -0.44724926 0.8736189 0.038548008 0.9949114 -0.86076146 -1.1474078 -0.2809379 -0.43260404 -0.005635805 -0.6409814 -0.97184926 -1.197157 0.47653294 -0.66199154 -1.1120034 0.14103708 -0.09873391 -0.19260164 -0.4137522 1.4406011 -0.47721726 0.08548311 -2.1198874 -0.85591936 -0.39586648 -1.1681869 0.8466486 0.8733665 -0.12500198 0.38096124 0.08042915 0.15114702 0.55710167 0.04633235 -1.182401 0.4902191 1.5576957 0.7347528 -0.14153819 0.5399691 -1.1983522 -0.32846346 0.77567685 -0.503496 -0.116078116 1.5979047 0.11379385 -1.0568966 -0.808956 -0.91241115 0.38493085 0.08926408 -0.22938879 0.4736327 -0.41346854 -0.9952053 -0.28786016 -0.9662095 0.47202438 -0.3880849 -0.7456224
get 1.005186 0.057011016 -0.52189374 -0.51675 0.43483683 -1.0160838 1.3436186 1.149317 0.11975355 0.819331 1.1476173 0.6780082 -0.9973362 -0.7348488 0.7800617 1.1173481 0.06697461 -0.4125615 -0.56903094 -0.5911928 1.8122206 0.16143271 -1.0443978 -0.84803116 -1.4712737 0.43030822 -0.07174537 -0.14576505 -0.18187046 -0.23460643 0.2228096 0.89307004 0.9301721 1.5004176 0.28683242 0.99906015 0.19122972 -0.9652619 -0.542141 -0.32399425 0.9603555 0.87999505 0.31587753 0.060099687 0.18269223 -1.6582129 0.28595233 -0.6985276 -1.0384766 0.7623862 1.1562146 -0.69767666 -0.33858442 -1.378072 -1.2217574 -0.91995084 -0.5810542 -0.8704776 -0.37873775 0.23987226 0.5350982 -0.031481184 0.995184 -0.832964 0.5239456 -0.30085894 0.8405297 -0.69565946 0.1286781 0.05296519 0.3086056 0.45318922 0.528493 0.35432267 -1.1631058 0.8165087 0.5364475 1.1198783 -0.13307312 -1.3937434 0.5333583 0.7634304 -0.1539986 1.6755189 0.36206594 0.7995471 0.2585777 0.8658959 -0.063604414 0.6635217 -0.6784774 -0.9978651 -0.68797076 0.59309274 -0.6219851 -0.6421262 -1.0101968 -0.8648551 0.43453756 0.21321473
when 0.13412204 -1.18394 -1.2849633 0.12646043 -0.040558033 -0.67801523 0.09223775 -0.17949276 0.23089251 0.30070984 -0.54420257 0.10154678 0.010996004 0.101645395 0.4859179 0.47371453 1.3299155 1.9604231 -1.093093 -0.52630633 -0.43193933 -0.72396076 0.052346528 0.0673507 -0.101353474 0.6158018 -0.5062107 -0.7127189 -0.99787766 -0.3041477 0.057289463 0.5957918 0.44414634 -1.0634624 0.9804795 -0.16214776 1.1485082 0.897072 0.21296348 -1.4421967 -1.1978933 0.35967347 -0.4763546 -0.29243332 0.2451606 -0.07286612 -0.35019997 -0.19902238 -1.0724981 -0.36652038 -0.29671255 -0.27854303 -0.6986091 -1.5472347 0.2492023 -0.57145697 0.96801585 -0.8866801 2.5607083 -0.57404435 0.18636955 0.4759094 -0.21140148 -1.3124348 -1.065392 1.2197719 -0.0007248972 -0.3642926 0.31467554 -0.010587318 0.0022726594 0.41034165 0.51481885 0.11728112 -0.68036336 -0.36537537 0.33591703 0.74274755 -0.22143492 0.07368782 0.44947886 -0.8344725 -0.025860172 0.09707101 0.4487696 -0.3985174 0.62480783 -1.205299 0.74454117 -0.088628225 0.5897808 0.043364517 -0.5016308 1.0254649 -2.1276996 0.4557054 -1.5034716 -1.0512971 1.074869 0.7278831
work 1.297038 0.3264579 0.7086168 -0.179748 -1.804688 0.4701515 0.7318519 1.4284223 -0.4509035 1.6632167 -0.0049638483 1.0575092 -0.00035206554 1.1993525 0.66350263 0.3851023 -0.057193916 -0.10833117 -0.52374595 1.711378 0.14822231 -0.10258769 0.77726775 -0.4253464 0.3722853 0.5993025 0.48628482 -1.0852141 -0.13781749 0.65268546 -0.8369876 0.26493818 -0.52987456 1.158466 -0.034081053 -0.09974281 -1.4348366 0.044040512 0.25997475 -1.162943 0.7508283 0.828572 -0.7795884 -1.7173016 1.1768179 0.18568607 -1.0115076 0.9901994 0.98096764 0.30080077 1.2249172 -0.39551777 0.2531624 0.3834968 -0.57272357 -1.5505552 -0.532604 -0.6042734 -0.19652188 -1.180054 -1.4471959 -0.015485142 0.36647215 -0.7108095 -0.59237325 0.5204983 -1.5131028 -0.21678543 0.101594076 -0.18731488 0.3670487 -0.08958196 0.36391082 -1.610878 0.45834687 -0.5495796 0.9568401 -0.7325432 0.48468375 0.65591156 1.063191 0.80282897 0.25471765 0.38690758 -0.47168437 -0.124522164 -0.53401744 -1.7717117 0.22798188 0.56846356 0.2722975 -0.8499346 -0.25104952 -0.3917103 0.94642806 -0.6642949 -0.33500582 -0.6859937 0.06752145 -0.17392652
look -1.0183018 -1.2476875 1.4417571 -0.19665548 -0.07603458 -0.03330615 0.20955826 0.5767851 0.75951767 0.7132893 -1.1722856 -0.773373 -1.1497446 0.3398735 -0.11887285 -0.98704994 -0.9419969 -0.46241757 0.22713973 0.050356872 -0.59368885 0.015053854 -1.2999563 0.28790936 -0.6137381 -0.9814679 -0.0065413425 0.35563424 0.36618674 0.26218945 -2.080784 0.38498265 0.8094226 -0.5974473 0.31856117 0.41623414 0.13078274 -0.28198132 0.23683673 -1.4093544 0.5433215 0.12624149 -0.5079202 0.13335927 -0.89320934 -0.208268 -0.23015073 -0.4676418 0.059396267 -0.20883922 -0.04960415 -0.08101284 0.23718916 -1.2336017 0.74410284 -0.01172468 0.33895147 0.15962332 -0.33569095 0.17111318 0.27315447 0.1817758 0.0022813783 -0.8735684 -0.2842438 0.875421 -0.65867925 0.24668382 -0.34818685 0.47577655 1.0214049 0.112094894 -0.68107224 -1.5100495 0.60461783 0.3321876 1.7129064 -0.106532946 0.08826593 -0.86155593 -0.37038442 0.69581956 -1.112155 -0.06217842 1.1676444 -0.20485483 -0.97001517 -1.3484359 -0.50292903 0.71898735 0.9892068 0.2966807 -0.3156298 1.358462 0.6952405 0.59820515 -0.17195375 0.06660396 1.4023913 -0.08980228
ever 1.8152333 -0.40217862 0.45940992 0.63792664 -0.71235895 1.216486 0.12279282 0.12489269 -0.9951225 1.0894164 -0.083671965 2.2259173 -1.3753338 -0.2965099 -1.3536035 -0.20975858 0.68651295 0.17470963 0.26293728 0.0056212186 -0.28571332 -1.5881741 0.26462376 -2.065824 -0.9782687 -0.74670297 -0.42969316 -2.4306931 -1.6690782 -0.21858713 0.79352206 -1.3404591 -0.77315855 -0.4566759 0.16837831 0.58363706 -0.8505841 0.6690466 -0.35865146 -0.62368214 0.5106793 -0.5925006 0.313882 0.5359257 1.012062 1.761788 -0.3664847 -0.6320179 -0.12564021 -0.18125144 0.7837178 -0.9565533 -1.3116038 -1.0134492 -1.513882 -1.5117121 -0.42058623 -0.5564165 2.1164737 -2.7360425 -1.017898 0.27766302 -2.2984457 -0.4450735 -2.851339 3.1398478 -0.42808366 1.1232668 0.93268317 0.6086974 -1.0985123 -0.13381664 -0.35157835 0.9996358 -0.430649 0.5307599 -0.22218989 -0.47921073 0.57719064 0.46307123 0.40196818 0.56725585 -0.9041645 -1.3224257 1.2421674 -0.6807042 0.43303412 -1.077879 1.3727856 -0.3627674 -0.10782242 0.6313638 0.9090051 -1.8011742 -0.9091758 -0.036678836 -2.0388181 -1.0567265 0.5238846 -0.45409477
actor 0.84838015 -0.7691649 1.0749155 0.8959622 -0.8538864 0.1770287 -0.7909237 0.7156602 -0.13729088 -0.22372957 0.38269544 1.5433265 -1.1907729 0.101859055 -0.79059553 0.30948454 -0.065363675 0.2163408 -0.5665665 -0.274212 -1.5003266 0.2668685 0.9001821 -0.25672927 0.40306154 0.041060317 -0.7077497 -0.5867642 0.37631547 0.019613052 -0.6119601 -0.35953042 0.38301226 0.12675989 0.57191634 -0.4418585 1.1582693 -0.19811772 -0.5139609 -0.45455185 0.39018515 -0.19429143 1.278442 0.50602955 -0.49535334 1.3924097 0.3318018 0.21120773 0.48891822 -0.23151118 -1.0102996 -0.7251717 -0.9623492 0.31708637 -0.4501965 -1.3500211 -1.0159193 -0.19879688 0.89846593 -1.4914093 0.5202674 0.02216477 -0.9195103 -1.4386286 -1.7090256 1.1027586 -0.067791566 0.7958541 -0.034504194 0.19347896 -1.2062049 0.42947102 -0.50523186 0.7581359 -0.086172245 -0.08102014 0.23232587 -0.14984557 0.4088104 0.8859409 -0.70106685 1.5008435 0.13228151 -0.63070995 1.9227128 0.50113195 1.694048 0.041626763 -0.46102086 -1.3950534 1.1043844 0.21713084 0.17055319 -0.5818186 -0.97443044 0.116788715 -0.75039554 0.074860945 0.15935376 -0.8697383
plot 0.9342417 0.21837729 1.0850052 -0.7442568 -0.3769219 -0.5282898 0.29600137 1.2915109 -0.592494 0.79299474 -0.05001588 -1.3537382 -0.93133205 0.93422276 1.0127332 0.23803973 -0.40851033 -0.76015043 -0.19212466 -0.023059161 -0.010926662 1.1777892 -1.4995666 0.18957806 -0.0014871291 -0.6521485 0.15341276 0.8994044 -0.7174301 -0.49459404 -2.7092824 -0.5207955 0.42190558 -0.5259753 1.218309 0.36375377 -0.23755793 -1.2388475 0.65136665 -0.84881955 0.77574044 -0.016506316 0.58146 -0.9682355 -0.51522374 -0.96938115 -0.6659729 0.5042345 0.3491608 -0.48505035 -0.5569862 -0.010867404 -0.40651125 -0.59404594 0.57192653 0.11438532 -0.20048241 -0.5794867 0.110323705 -0.12368459 -0.3713439 -0.4784712 2.0229907 -1.2634916 0.39660013 -1.2854047 -0.12455651 -1.1452508 0.5563424 0.53302354 0.50521415 -0.3055136 0.063394696 -2.47259 -0.36117256 -0.22261104 -1.0238112 0.30276528 0.7706342 -0.7345939 -0.17186227 0.6163955 0.5935541 0.24445729 -0.06169677 -0.22005142 -0.8407014 -0.021148298 -1.3697861 0.38496068 -0.76097 -0.6773796 -0.46532345 0.21165575 0.8264814 -1.7258527 -0.75699806 1.5526661 -0.21474573 0.3148584
go 0.87689817 0.18933587 0.37432864 -0.08316105 -0.4455483 0.05733749 -0.4492149 0.13841638 -0.328733 1.4374621 0.911513 1.2353342 -1.3620929 -0.72997165 -0.60711074 -0.20404999 -0.8078361 0.056465212 0.1775111 -0.45086384 0.65139145 0.12770608 -0.5709615 -0.034537777 -1.7451634 -0.421711 -0.121039286 -0.9422322 0.24149083 -0.08895888 0.29709068 0.4936784 1.022775 1.3047093 -0.8786188 -0.15391786 -0.82808644 -0.42954805 0.07332615 -0.5830561 1.2177019 1.221808 0.23162507 0.546426 -0.17324035 -1.2198769 0.7036582 -0.35281342 -0.43100128 -0.062089734 0.2771782 -0.5204978 -0.14201047 -1.5374668 -0.5919507 -0.8170839 0.4526872 -0.9622226 0.43157583 -0.35518306 -1.180056 -0.18513182 -0.17761217 -0.5696488 -0.6869007 -0.022517817 0.6969845 -0.4537151 0.46836233 -0.30890802 -0.5834416 -0.55871487 0.044203546 -0.35545185 -1.020772 0.85485125 0.5853618 -0.3075899 0.74517465 -0.36257192 0.19571579 0.31184733 0.07983213 -0.47230354 1.1107016 -0.40777102 -0.4431425 -0.028135462 0.25396878 1.1068336 0.21339571 0.24592572 0.22986995 0.12875198 -0.7505851 0.728844 -0.6584642 -0.694197 1.0562501 0.03891157
some 1.202502 0.2661582 0.5470607 -0.3952133 -1.3 0.7530758 1.0437766 0.28521955 -0.22421701 0.62963563 -0.16252965 -0.36203882 -0.25888437 0.2471176 1.6720909 0.8438152 0.025041921 -1.1679114 -0.12452816 -0.1714972 0.28508618 1.1316615 0.046364356 -0.31796035 0.5870114 0.26990223 0.68698084 1.1525759 -0.1925919 0.1336378 -0.6344398 -0.28642082 -0.25426304 -0.8687307 0.51054734 0.34785095 -0.8246225 0.032416873 0.26331505 0.16363144 1.5315962 0.41638565 0.6754697 -1.4963725 1.1301949 0.22212315 -1.0615976 0.6847142 0.02761518 0.17283684 -0.17752063 0.20895557 -0.5823109 0.8934983 -0.4948969 -0.2490414 -1.8399723 0.5838257 -0.4496202 -1.3560728 -0.48989606 0.13289624 0.8710168 -0.49952707 0.1979285 -0.5990437 -0.04743649 0.009903129 -0.09739796 -0.18151304 0.4853226 -0.040384054 -0.17138909 -0.6702713 0.102292374 -0.6532372 -0.10648021 0.0018206281 0.69945097 -0.048771992 0.54083467 0.6890154 -1.0749391 0.477895 -0.25275078 -0.08743954 -0.8721445 1.1375717 -0.73552245 0.024549296 0.017169384 -0.6646801 -0.14002146 -0.87082744 0.094694465 -0.5549566 0.8791766 -0.045075595 -0.96053094 -0.4258572
script 0.97032684 0.7466396 1.1186758 0.5360507 -0.89351207 -0.4747374 -0.14879654 1.4714141 -1.2385098 -0.25396082 0.49683377 -0.023558285 -0.88295037 0.5530949 -0.43496644 0.34592074 -0.054323517 -0.9945093 -0.73506624 -0.48358247 0.2596544 1.3024324 0.061353777 0.21363881 -0.13445549 -0.090764664 -0.33555228 0.3882838 -0.4638963 -0.61675954 -2.4902434 -0.46589836 -0.61238253 0.3942093 1.8875114 0.3624516 -0.9552763 0.037316553 0.013955258 -0.62291384 0.91528094 -0.5028269 1.4162353 -0.63309526 0.11715937 0.064010836 -0.50674814 0.6282202 0.79107803 -0.26794502 -1.0101415 0.39838833 0.39925784 -0.32368505 0.09897261 0.2619777 -1.0768485 -0.2815617 -0.13512301 -0.65362453 -0.10793983 -0.6130578 0.90523213 -1.04048 0.20018987 -0.25827256 0.4071975 -0.14421602 1.1673002 -0.13414125 -0.02970338 -0.06123516 0.4222901 -1.6204076 0.9672068 0.58876276 -0.20822264 -0.95783144 0.0013124621 -0.007137105 -0.26274365 1.1294265 0.3223139 0.40441498 1.1877338 0.14551735 -0.21697553 -0.7314096 -1.2370862 -0.5146388 -1.5962743 -0.68919325 -0.69860625 -0.816699 0.39100322 -1.1745677 -1.0480701 0.817562 -0.21614426 -0.9014013
give -0.7063143 -0.54349005 0.2195751 -0.09682054 -1.1441236 -0.21498351 -0.017506056 0.5362326 0.056164056 1.2043004 -0.74091166 1.1692564 -1.7546929 -0.4874651 -0.2609644 -0.5615796 -0.21864049 -0.7905629 -1.216859 -0.07245908 -0.04180866 -0.16427468 -0.5982335 -0.6537221 -0.7365484 -0.07785018 -0.5274673 -0.2030437 0.6740971 0.75216526 -0.28606012 0.6814021 0.57292134 0.008539455 -0.0032760315 -0.45596555 -0.4035595 -0.22132726 -0.28499165 -0.87066257 0.19680744 -0.7821126 0.92162615 -0.08983689 0.2226373 0.030656528 0.42318884 -0.27006903 0.1951266 -0.5051058 1.0350509 -0.020220513 -0.9599162 -0.40161544 -0.6204227 0.00289784 0.2527518 0.6598454 -0.28401256 -1.0175574 -0.0028155078 1.1597524 -0.978412 -1.1790531 -1.3382711 1.1318403 0.6146806 0.36831984 -0.5809947 0.41950145 -0.75529677 1.1621349 -0.92196405 1.2371938 0.29158378 -0.104298115 1.1937879 -0.15151082 0.54783934 -0.64778185 0.24196039 0.5354119 -0.79408 0.49268848 1.6704036 0.94376975 -0.61746347 -0.17969722 -0.61105955 -0.40120214 0.176728 -0.86286 -0.037633583 0.46267062 -0.4271918 1.3666204 -0.48334727 -0.7397026 1.1061624 0.40003255
don 1.0886153 0.93205076 0.39293063 0.1835618 0.4260525 -0.43300426 -0.98182946 1.4660267 -0.3629272 1.631861 0.101575196 0.76502734 -1.4636962 0.28667742 -1.0541636 -0.6377647 -0.45877427 -1.0266423 0.67411673 -0.50292194 1.1301266 -1.3631624 -2.626905 -0.674352 -2.6705987 -0.18289824 -0.5414554 -2.607332 -1.0341823 -0.7855374 -1.9105842 0.801502 0.47314247 2.2373805 0.2750212 -0.16309664 -0.15128776 -1.7860739 0.06659195 0.28769925 0.9770749 1.9629368 0.10269407 -1.3731796 -0.676008 -1.8056444 -0.4450353 -1.2632587 -1.4268744 -1.0798241 0.32310733 -0.052109357 -0.123250775 -2.0966995 -0.33552417 -2.2461073 0.4159363 -1.7709397 0.3582146 -0.13228998 -1.8110868 -1.7455759 0.38684133 -0.79589796 0.36027023 0.16810882 -0.25520632 -0.71080816 0.98074377 -0.33487055 0.50803965 -0.8924021 1.1211523 -1.2433125 -0.8616829 0.16533871 0.81027216 0.8523198 0.712677 -1.82811 0.2717967 1.6441721 1.6949661 -0.84720683 0.581838 -0.46713752 -0.52271086 -1.2805204 1.4898684 1.8121743 -1.4697818 0.038708672 0.22993873 -0.4876883 0.7463813 -0.8919174 -1.7247881 -0.4321968 1.2537338 -0.5065145
best 0.2998824 0.16624554 0.90247196 -0.34743866 -0.77222425 -0.22632347 0.979131 1.1820121 0.036100402 0.79136544 -0.5064057 1.266416 -0.7980505 -0.47462964 -0.44531512 -0.14608109 0.3727089 0.06728404 0.04034461 0.27938196 -0.6939768 -0.4168344 0.4088955 -0.49646613 -0.25782067 -1.287959 0.16562866 -0.31254673 -1.6434418 -0.19223775 -0.2626222 -1.0050972 0.1215691 -1.163631 1.1040332 -0.19538178 -0.19684908 0.8921526 -0.8115647 -0.80201066 -1.0776572 -2.013272 -0.088308215 0.6892346 1.1983247 0.9011991 -1.1567606 -0.9538634 0.949129 0.3179724 0.9727093 -0.21983129 -0.9941629 -0.14919077 -0.7734178 -0.10475611 0.21646452 0.2447326 1.2957493 -1.208068 1.0733266 1.475486 -1.0970138 -0.5637743 -0.5989858 1.9344175 -0.52162516 -0.84583914 0.75148565 0.74099135 0.4013994 0.49494752 -0.06800642 1.2494367 -0.11732321 -0.6812195 0.106855236 -1.7767185 -1.0045358 0.38764912 -0.03458785 -0.8856177 0.04668034 0.2877673 1.3026952 -0.6291363 0.3034172 -2.3555636 -0.4590282 -0.23626469 -0.71015155 0.7077749 1.1371298 0.0073348815 0.39564347 -0.08663378 -1.6325454 -2.0723505 1.446168 0.37068167
because -0.23150374 0.050408985 -0.009005299 -0.28751403 -0.12556422 -1.1798348 -0.7227358 -0.5901031 -0.1859941 1.1323788 -0.33804965 0.4865785 -0.7214778 0.29261878 -0.6172765 0.44919088 -0.89065444 0.2877355 -0.18488236 0.0015217091 0.56547827 -0.49526933 -1.0287125 -0.3860985 -0.12021967 -0.10329644 -0.11267221 0.0561648 -0.6889792 0.021087829 -0.55154353 0.21455981 1.4357654 -0.38278344 0.32553813 -1.0599033 1.115441 -0.11211256 0.034178812 -1.1415946 0.4410011 0.1910423 0.1933033 0.038463525 0.46284768 0.16037072 -0.34480235 0.23914887 -1.1831111 -1.815281 -0.4181898 0.23136681 -0.25155297 -0.62503713 0.44995627 -0.4305646 -0.48228648 -0.8995601 1.1426467 -0.28073654 0.14565015 0.048818734 0.2795247 -0.41591826 -0.97526526 0.29793772 1.2831441 -0.43130127 0.046053857 0.31620818 -0.07392147 0.60769635 0.062072698 -0.40041772 0.11607692 -0.117420055 0.7742713 -0.035558097 0.36043116 -0.81234634 -0.15314163 -0.016722128 -0.28532347 0.09454492 0.31554535 0.051082406 -0.13620366 -0.38773355 0.2359778 -0.2787348 0.5431389 -0.1446125 -0.2102357 0.48462942 -0.7829831 1.3174689 -0.49984172 0.04050398 1.049581 -0.00158734
cast 0.23582685 0.6528429 1.3140193 0.5199113 -1.3474126 0.2718139 0.38129014 1.1524161 -0.21850696 0.3082004 -0.16169621 0.9818108 -0.79144436 -0.74668795 -0.36896148 0.3868361 0.24633686 -0.1497845 -0.9045168 -0.75870055 -0.49770907 1.066096 0.6463169 0.61228913 0.5821226 -0.030060038 -0.3440264 1.3078747 1.3962847 0.9015044 -0.93542624 -0.9546044 -0.9217863 -0.30486268 0.8120484 0.5682596 -0.41576046 0.14904626 -0.70918417 -0.5096913 -0.16151339 -0.46596247 1.0203322 -0.6268933 -0.44985235 0.17830554 -0.113336906 0.1340417 1.1562566 0.095431626 -0.95447475 -0.23123288 -0.5935687 0.7907942 -0.15126 -0.04033761 -0.14103952 0.3666473 0.69551826 -0.9422478 -0.9540124 0.12524642 -0.25686324 -1.0754855 0.20574617 -0.8465647 -1.001291 0.01007959 0.43955773 0.06966559 -0.8413043 0.020517342 -0.056577213 0.35725498 0.10766579 -0.48544005 0.38843384 -0.35858205 0.17777507 0.5272855 0.16707565 0.9859124 0.4899486 -0.596451 1.1986065 0.2497733 0.12693392 -0.32000867 -0.9640168 -0.6681887 0.21878028 -0.47510505 0.12303446 -1.043124 0.11297342 0.13713041 0.11061669 -0.18043306 -0.13384761 -0.49267453
your 0.3807443 0.048247054 0.2359009 -0.83324355 1.0001917 0.51195383 -1.1415681 -0.03866726 1.0516399 0.6298702 1.4569389 -0.32585692 -0.9742564 -1.601426 0.7603897 -0.7707073 -1.6551275 -1.7274231 2.1819863 -1.6915084 0.8565785 0.89107764 -2.1598768 -0.40397105 -2.026012 -1.6157736 -0.73606753 0.42170957 -1.2087861 -0.450844 -1.2636415 -0.54559785 1.6209973 1.0947667 0.4179116 -0.61143446 -0.16504131 -2.419918 -0.67593145 0.927937 1.7372053 1.6536148 0.051706087 -0.2538974 -0.35272527 -1.9310017 -0.38735577 -1.2082518 -2.3419044 0.08044588 1.0995475 0.568014 -0.56523615 -2.3322723 -0.79387003 -1.2082309 0.10659275 -0.3604674 0.28666905 -0.13508114 -0.19987601 -1.1632494 0.7316548 0.13162056 0.996721 -1.2481265 0.89912164 -0.6558489 0.92365015 -0.9058858 -0.013780569 -1.4095722 0.26551256 -0.7915308 -1.434889 0.16327609 0.48241886 1.0600483 1.1010667 -2.0546026 -1.2306148 0.5256509 0.07230803 -1.0464067 1.3151745 0.9027475 -0.6142695 0.11008857 0.55264235 2.778826 -0.45084763 1.1734642 -0.0046830713 -0.0046249917 0.97011495 -0.51149595 -0.93359536 -0.4513969 1.1428621 0.12989269
also -0.32664976 -0.12728912 0.6604694 0.17189547 -1.4730233 0.94810754 -0.23011747 0.14966728 -0.34362698 -0.00858883 -0.5291248 0.9152223 -0.35770556 -0.24790122 0.3864045 0.10377498 -0.11437893 -0.26849163 -0.76041436 -1.0303664 -0.8241317 1.2044343 1.0987886 0.37015715 0.9086589 0.27292415 -0.56580055 1.3535618 0.06478645 0.7352835 -1.5300527 -0.9259247 -0.45861363 -1.5764937 1.0684566 0.2808117 -0.6819946 0.385023 -0.90181583 0.3147804 0.22675633 -0.9339704 1.6070532 -0.6827508 0.5818369 1.448277 -0.1571992 0.23398888 0.6014791 0.067377105 -0.70703447 -0.28396916 -0.7013475 1.0490459 -0.3052664 0.114256606 -0.7644882 1.2070028 0.31459475 -1.5298809 -0.3565642 0.18380827 -0.56261986 -0.5894959 -0.40102264 0.3749679 -0.6032138 0.060207374 0.091594234 -0.8156946 -0.53261226 0.5532403 -0.10754656 0.41866058 0.8244716 0.005508203 0.64710134 -0.64408207 0.46058333 0.16092148 0.7062407 1.1132498 -1.4384067 -0.08248552 1.0746914 0.63858736 0.062467862 -0.11714363 -1.071051 0.023768412 0.5786434 0.14790721 0.3334803 -1.3045118 -0.5362449 -0.057729356 0.028610911 -0.9794082 -0.31559944 -0.6133491
thing 0.92196256 -0.5175938 -0.08182416 0.64624465 -0.5268137 -0.6157317 0.020419383 0.14134118 -0.6225139 0.16035035 0.022214314 0.50609505 -0.17283261 0.60398346 -0.44425544 -0.44674334 -0.2113397 -0.379863 -0.9360127 -0.4680898 0.41902074 0.2771314 -0.33941892 -0.1835081 -0.9380177 0.45330867 -0.032930277 -1.3794115 -0.23978248 0.4282853 -0.45207942 -0.6849824 -0.3737 -0.32241607 0.16792628 0.8884079 -0.18503572 -1.0641664 0.1832744 -0.8137944 0.6436129 0.4901855 0.79967225 -1.6794473 0.37074232 -0.1423504 -0.3574468 0.0019631067 -0.509558 0.046598054 -0.3783117 -0.1034068 -0.6645726 -0.5583415 -0.042274673 -0.58349746 -0.74672914 -0.99309427 0.9418389 -0.7533734 -1.0555099 -1.2299699 0.036182035 -0.45579252 0.1120582 -0.23447599 -0.54049504 -0.43580133 0.5582413 -0.23015276 -0.33407453 0.38312837 0.5521051 -0.33297488 0.6682145 0.7770965 0.5415214 -0.25673172 0.6861033 -1.0494661 0.4066184 0.6160875 0.24791083 0.16341728 0.5688028 -0.4509484 -0.4133375 0.0015033304 -0.3106567 0.40096128 -0.2797151 -0.27138442 0.44876426 -1.1412499 -0.5581706 -1.1894956 -0.4476881 -0.3755056 -0.6403301 -0.43315628
way 0.74563885 0.14528769 -0.44952843 0.16187988 -0.64254653 -0.79861885 0.5772014 -0.17333905 -0.15925048 0.5845131 -0.5938071 0.54116225 -0.7802428 -0.19139022 -0.8674856 -0.19790766 -0.11443184 -0.11534908 -0.4457125 0.11600605 -0.3508688 0.4311277 -0.52704614 -0.015124592 -0.2463672 -0.31684512 0.16784063 0.4228658 -0.91755235 0.16358612 -1.3895465 0.43783027 0.25948527 0.21287695 0.6117623 1.0473429 0.2832427 -0.29919913 0.25360477 -0.11040042 0.20563436 -0.06764915 0.70915854 -0.36301407 -0.36833572 -0.118691854 -1.0052686 -0.8341842 -0.014046141 -0.41022125 -0.360046 0.042502698 0.17264445 -0.31332484 -0.117893375 -0.24605985 -0.002946484 0.10654701 0.43595135 0.17347865 0.1302948 -0.31266493 -0.617624 -0.3818666 0.47273472 0.9965573 -0.042651616 0.3013801 0.58696014 0.08968889 1.287917 0.40174565 0.1573206 -0.57073176 0.39457417 0.7271343 0.750868 -0.60967845 0.0106831305 -1.0191357 0.3524819 0.43310282 -0.4324175 -0.15651168 1.1773044 -0.8064505 -0.29527617 -1.5503988 -0.54039806 0.2877606 -0.29625496 0.28504533 0.3824405 0.17885517 -0.07950163 -0.08435195 -0.91126156 -0.17904638 -0.18626483 -0.33234492
think 0.928478 -0.61938256 0.14029352 0.13627562 -1.014198 -0.026696274 -0.91399866 0.084702544 -0.21845764 1.9513799 -0.114757694 2.2228153 -0.77555484 -0.3374663 -1.2405632 -0.29291356 -0.37212133 0.22659588 -0.10705608 0.46308002 -0.2203212 -0.7672593 -0.40764913 -0.5211706 -1.4376837 0.17514122 -0.4186585 -1.5901632 -0.21107027 0.31009552 -0.74610376 0.8320156 0.9533357 1.4158841 -0.66006786 -0.8497802 0.27911872 -0.41262487 -0.3772936 -0.01694329 0.07284801 1.0858706 0.03295411 0.48718783 -0.34833592 0.21043202 -0.12508483 -1.0599421 -0.0024595957 -1.3454897 -0.041491944 -0.29445451 -0.6748793 -1.3063544 -0.08132378 -0.7830782 0.24980073 -0.8841664 1.1090317 -0.7558688 -1.0440001 -0.51201326 -1.7698416 -0.6407127 -1.5467997 1.7981904 0.16124803 0.13470481 0.24627559 0.0934131 -0.13748665 -0.25942388 -0.11845318 0.5814107 -0.40071827 0.20022215 0.7416108 -0.51773995 0.45928043 0.18033755 0.3306612 0.5524097 0.22117844 -1.0803101 0.8697294 -0.68900996 0.45667577 -1.5285879 0.77935755 0.17415626 0.33228397 0.4333687 0.17116185 0.7019705 -0.48863998 0.87929195 -1.2067486 -0.5987795 1.1759256 -0.8875833
than -0.37033105 -0.07122855 -0.20540993 0.02730874 -1.3943717 -0.36898604 0.11743245 -0.46691817 -0.78649366 0.43841165 -0.75045574 -0.3183019 -1.1107291 0.2560669 1.4303063 0.5341315 -0.10564002 -0.49593136 -0.71632564 0.6795066 1.308996 1.2109419 -0.09549808 -0.60999084 0.19633816 0.017245604 0.010663329 0.2938511 -0.92833066 -0.55396754 -2.2996814 0.017007016 0.7791579 -0.82750237 1.583423 0.49729437 -0.526709 -1.6334076 0.6349592 0.34980002 1.5431683 1.6038115 1.4100151 -0.555294 0.87279725 0.46074426 -0.9688907 1.1711429 0.57814395 -0.04084902 -0.3097048 0.013747844 -1.1005725 0.4812144 0.6841485 0.3155183 -0.35566324 -0.06311012 0.50522393 -0.8028406 -0.49256307 -0.74352425 0.46569392 -0.63151467 -0.019770117 0.29146162 0.21786046 -0.5900865 1.5160424 0.09133029 0.36733127 0.012690177 0.12178535 -0.90125215 0.53496134 -0.18636394 -0.5611697 0.095620155 0.3413059 0.6578859 1.2022458 -0.07745297 -0.4196192 -0.36512205 -0.1246546 0.42936823 -0.3640375 -0.00551406 -1.2464973 -0.5143703 -0.9658899 -0.82362 0.2143784 -1.2134817 -0.06551 -1.6707056 -0.36394513 -0.2594325 -0.36097965 -0.8695335
would 0.36225295 -0.19245735 0.919138 0.48652485 -0.1373428 0.39524832 -0.20910999 -0.017913237 -0.1948048 0.72092974 -0.51829904 1.200191 -0.7430762 -0.82194877 -1.2339036 -0.3045279 0.04464379 -0.38183445 -0.5208638 0.26752448 -0.21850897 -0.2339477 -0.5051756 -0.24965711 -0.2911752 -0.36121866 -0.5701594 -0.44535172 -0.06414282 0.42091936 -0.41140684 0.100382306 0.5584076 -0.34318167 -0.16969337 0.28846976 -0.15410165 -0.2038234 -0.3615238 -0.24301694 0.16354796 -0.45154402 0.22205819 -0.26769978 -0.12745127 0.8366932 -0.8208202 -0.9448709 0.012135813 -0.6129621 0.3136689 -0.08100791 -0.5029342 -0.37593773 -0.82689166 -0.41326284 -0.054584462 0.04085203 1.209538 -0.94733495 -0.36347967 -0.30133545 -1.2992139 -0.5297791 -1.1338617 1.3651059 -0.13446066 1.1719759 0.19226463 0.16956761 -0.38396886 1.1165497 -0.11787274 0.29595485 -0.6929854 0.42241022 0.48715937 0.06239899 -0.17352512 -0.2602834 0.21351045 0.8795598 -0.11301524 -0.88118446 1.0552213 -0.3918535 -0.52472997 -0.7591792 0.58703876 -0.61591035 0.6000922 0.2882539 0.506576 -0.7299122 -0.3891816 0.70268947 -0.5440173 -0.32995972 -0.19591184 -0.5270588
write -0.21772419 0.73574513 0.7108591 0.29893488 -0.86142194 0.34105563 -0.5002044 0.14060245 -1.5181345 -0.14405762 0.16051543 1.3932849 -0.7861231 -0.033899397 -0.76050603 -0.20508245 -0.22990505 0.39078277 -0.7635004 -0.436134 -0.18061638 0.4196911 -0.07802037 0.35125077 0.31347796 0.62701434 -1.0321629 0.13531657 -0.05841358 -0.23407723 -1.3949744 -0.45676312 0.18688698 -0.38892278 1.470769 -0.009474864 -0.42631298 0.48093084 -0.32058343 -0.30343452 0.040071584 -0.9148607 1.974055 -0.40153247 0.26924583 0.53065264 -0.029925128 0.99688953 -0.1691892 -0.9690198 -1.6243596 -0.15604176 -0.0128481 0.7656863 0.23139474 -0.32134154 -0.94343036 -0.0017144695 0.97774345 -1.3115028 -0.2828013 -0.79844654 -0.22933674 -0.40799862 -1.0190583 0.8243041 0.36351687 0.4460954 1.1162636 -0.8908747 -0.41637823 1.0766172 -0.208264 -0.2746084 0.66130865 0.066565685 0.45909265 -0.6168586 0.26118827 0.46231017 0.3989264 0.9294364 -0.70454466 -0.6149513 1.1583393 0.14316595 0.0153535735 -0.17379391 -0.5617971 -0.6751657 -0.03730236 0.2611671 -0.38962767 -1.4703268 -1.546615 -0.5887954 -0.36214942 -0.44169408 -0.6365791 -0.63990843
end -0.17688298 -0.31516436 1.5766554 0.13507862 -0.07954548 -0.62268287 0.6769843 1.7220111 0.5257856 0.044962052 -1.2432418 0.44405574 -1.062446 -0.2906183 -0.7561051 -0.55363005 -0.8125633 -0.80675566 0.072704844 -0.49226457 -0.569851 -0.30527714 -1.4736589 -0.11324564 -0.95540315 -0.8780358 0.44582736 0.043109924 -0.78312814 0.20358214 -1.3105971 -0.6719522 0.2120518 -0.17449865 1.2435211 -0.008581371 0.72335833 -0.038554378 -0.33228382 -0.77943677 -0.4910687 -1.6018268 0.49586323 -0.19953005 -0.34180382 -0.2124345 -0.04572354 -1.2121378 0.7746933 0.22762066 0.3246368 0.17276338 -0.5923547 0.007441706 -0.13596217 -0.7453377 -0.22533529 0.28661487 -0.14640562 0.14848813 0.61398166 0.57379425 -0.6676448 -0.68192226 0.1860216 0.5234704 -0.56421894 -0.20537588 -0.0633001 0.2769302 0.72894114 0.10903837 -0.35966906 0.32986754 0.23546204 0.20001824 1.1291587 0.022205226 -0.24703518 -1.7179029 -0.6474464 0.74180377 0.09856685 0.9691763 1.461677 -0.11453971 0.040178344 -1.229423 -0.23697107 0.4105526 -0.19643746 0.2563093 0.567181 0.8692104 0.60439736 -0.39498872 -0.524014 -0.7971722 0.99667203 -0.5313921
show 0.53468674 -0.8615599 0.17335999 -0.45017236 0.28063446 -0.34393805 0.4728349 -0.2157484 -0.110795386 0.34088904 0.2897337 0.04804669 -0.69998866 -0.3318273 0.23736256 -0.14353998 -0.23250556 -0.45608425 -0.26575372 0.1670286 0.31340453 0.58714265 -0.4180862 -0.90268946 -0.5078518 -0.48353967 0.07842838 -0.31893042 -1.1992077 -0.34984326 -0.62656295 -0.12835817 1.0856944 -0.33693874 0.233859 0.0918909 -0.2290975 -0.8044876 -0.051262904 -0.36542922 0.51874965 -0.031375997 0.13727646 0.6092904 0.21090579 0.19328426 -0.73335874 -0.3324161 -0.05315163 0.039693054 0.62117845 -0.10606458 -0.8749854 -0.7477943 -0.28340998 0.099968195 0.41427892 -0.45445356 0.7327288 -0.34860817 0.65187925 0.07893756 -0.49571228 -0.2979475 -0.58228534 1.1625693 0.49391016 -0.12618497 0.66496897 0.27042606 0.458951 0.54462814 -0.5635555 0.11769567 -0.3331355 0.5390637 -0.15456901 -0.059755284 0.23645774 -0.27556205 -0.2108206 -0.33538696 -0.36469924 -0.02954994 0.5720261 -0.21938027 0.0035352954 -0.5087356 -0.54266334 -0.03074332 -0.3862573 0.19839203 0.07190342 -0.0034234175 0.16822211 -0.5630002 -1.3202002 -0.32679808 0.4217523 0.08283683
other 0.9218896 0.15911306 0.34899276 -0.75249326 0.3114744 0.77380955 0.82573944 -0.5353559 -0.5115002 1.1146567 0.32800174 0.27268377 -0.24223511 -0.077102475 0.9108362 0.8208624 0.37694392 -0.70149976 -0.06722457 1.2926517 0.30389646 0.051524453 0.6932555 -0.96613586 0.630974 -0.9150515 0.22410497 0.14055169 -0.30668533 -0.03325912 -0.43775386 0.29815826 0.73482 -0.3027637 -0.68870384 1.0088012 -0.26057246 -0.42778784 0.09704936 -0.015882643 0.5179104 0.78984296 -0.69443715 0.38587752 -0.2009738 -0.3465407 -1.4701855 -1.055655 0.24542624 0.03567778 0.47316167 -0.96487236 -0.76207703 -0.76606995 -0.9093464 0.03439813 -0.30135027 -0.8624154 0.7310581 -0.4336006 0.004552268 -0.3865394 0.06800505 -1.0756912 -0.7186018 0.5888053 -0.68223023 -0.06554069 0.5708774 1.540956 0.92332953 -1.0196731 -0.06447025 -1.2031704 -1.315101 0.3715858 -0.7832629 0.14764401 0.4674556 0.8241477 0.90378165 0.0834379 -0.10944739 -1.4137642 -0.60733354 -0.9409552 -0.15540114 0.008063039 0.2552018 -0.46926185 0.27636588 -0.57997775 0.67542547 -0.4440737 0.32349923 -0.8245265 -0.6717937 0.3756446 -0.0729672 0.7809817
